//<![CDATA[

// a few things don't have var in front of them - they update already existing variables the game needs
lanesSide = 3;
patchesAhead = 50;
patchesBehind = 10;
trainIterations = 500000;

var num_inputs = (lanesSide * 2 + 1) * (patchesAhead + patchesBehind);
var num_actions = 5;
var temporal_window = 0;
var network_size = num_inputs * temporal_window + num_actions * temporal_window + num_inputs;

var layer_defs = [];
layer_defs.push({
    type: 'input',
    out_sx: 1,
    out_sy: 1,
    out_depth: network_size
});
layer_defs.push({
    type: 'fc',
    num_neurons: 36,
    activation: 'tanh'
});
layer_defs.push({
    type: 'fc',
    num_neurons: 24,
    activation: 'tanh'
});
layer_defs.push({
    type: 'fc',
    num_neurons: 24,
    activation: 'tanh'
});
layer_defs.push({
    type: 'fc',
    num_neurons: 24,
    activation: 'tanh'
});
layer_defs.push({
    type: 'regression',
    num_neurons: num_actions
});

var tdtrainer_options = {
    learning_rate: 0.001,
    momentum: 0.0,
    batch_size: 128,
    l2_decay: 0.01
};

var opt = {};
opt.temporal_window = temporal_window;
opt.experience_size = 100000;
opt.start_learn_threshold = 50000;
opt.gamma = 0.98;
opt.learning_steps_total = 500000;
opt.learning_steps_burnin = 1000;
opt.epsilon_min = 0.0;
opt.epsilon_test_time = 0.0;
opt.layer_defs = layer_defs;
opt.tdtrainer_options = tdtrainer_options;

brain = new deepqlearn.Brain(num_inputs, num_actions, opt);

learn = function (state, lastReward) {
    brain.backward(lastReward);
    var action = brain.forward(state);

    draw_net();
    draw_stats();

    return action;
}

//]]>
/*###########*/
if (brain) {
brain.value_net.fromJSON({"layers":[{"out_depth":420,"out_sx":1,"out_sy":1,"layer_type":"input"},{"out_depth":36,"out_sx":1,"out_sy":1,"layer_type":"fc","num_inputs":420,"l1_decay_mul":0,"l2_decay_mul":1,"filters":[{"sx":1,"sy":1,"depth":420,"w":{"0":0.030190944277837993,"1":-0.07162584579104218,"2":-0.0025428994702132116,"3":0.1364726158634457,"4":0.009881847221769068,"5":-0.06019189068553262,"6":-0.1339915431448671,"7":-0.00620960123546415,"8":-0.1165143699648193,"9":0.018472303185631436,"10":0.07483036860172639,"11":0.06000822355056415,"12":0.04107857719198331,"13":0.00007613094152450001,"14":0.005039026207270661,"15":-0.09567582286028326,"16":0.011954038788917258,"17":0.08037953223097158,"18":0.06617220552478179,"19":0.0032335779510862727,"20":0.06353499135768709,"21":0.12005409157729377,"22":0.03990053503926083,"23":-0.03236977783774451,"24":0.11908070378868077,"25":0.05245333987092479,"26":0.011989040232910397,"27":-0.07844731140966671,"28":0.020533226510854846,"29":0.04553741779073141,"30":0.00035183704768447364,"31":0.15091357930639562,"32":-0.031114232409925245,"33":-0.025405070397960895,"34":-0.08571703084776928,"35":0.06042082866126759,"36":-0.05519603428532325,"37":0.0014588975652906153,"38":0.07000366093310112,"39":0.09765595242004482,"40":-0.005616951274375669,"41":-0.026846558832971653,"42":0.032523083258319346,"43":0.09235499062598737,"44":-0.009625381908295238,"45":0.08901456777189846,"46":0.13066585665563948,"47":0.01713395965376615,"48":-0.017746444980995278,"49":0.09555169791513063,"50":-0.011507725902619547,"51":0.021686008715241015,"52":0.054800148921886394,"53":0.060724819258558674,"54":0.0009019193769267716,"55":-0.012859899538697787,"56":0.0644865531742113,"57":0.014375506576188218,"58":0.05277946141217526,"59":0.09083225060200013,"60":-0.057093160625387614,"61":-0.06705904001959845,"62":-0.0639711391353416,"63":-0.05950379748837788,"64":0.02691897375255908,"65":0.04715904050186072,"66":0.07960536769594544,"67":0.14136949530687484,"68":0.08211380705975826,"69":0.0393420256083551,"70":0.07495333647586845,"71":0.035035716896625484,"72":0.07978872992973121,"73":0.16640683562732306,"74":0.03836057215051989,"75":-0.03572126762296551,"76":-0.053046718087824324,"77":0.015955457044350984,"78":0.012456958536547342,"79":0.0067030455337084155,"80":0.07358214230476104,"81":0.07994783110851937,"82":0.025219478912575585,"83":-0.07740801268746152,"84":0.048889821528152425,"85":0.1031162368771735,"86":0.00004593896843888033,"87":0.09970626879340568,"88":0.06843110742725764,"89":0.005332303177622907,"90":-0.028449544405590034,"91":0.01635627214802049,"92":0.07861444792338011,"93":0.12400414468918014,"94":0.05756132365370305,"95":0.04175723275292772,"96":-0.0480595068024258,"97":-0.04799673527981422,"98":0.11657817541267011,"99":0.12483452263028039,"100":0.08335367004979952,"101":0.22504715413706575,"102":0.10486530769657261,"103":-0.0007139639268642932,"104":-0.006496047360967144,"105":0.007063338845677354,"106":0.09957895562705685,"107":0.08195630109444885,"108":0.15923584499833726,"109":0.06598695677861548,"110":-0.05766189984208078,"111":-0.06029536532696459,"112":-0.06137036066563923,"113":0.09798026810759262,"114":0.015943644705008947,"115":0.1247304386601444,"116":0.06140353387772804,"117":0.018395790204373177,"118":0.013029856913138642,"119":-0.04148976441393129,"120":0.07416149800457968,"121":0.10970067490107231,"122":0.1241073521484992,"123":0.13240778339403905,"124":0.046728313861365355,"125":-0.05603457754008283,"126":0.00738338494168627,"127":0.02135114945458849,"128":0.049423060681962186,"129":0.1659466148158242,"130":0.1278518572712553,"131":0.06392195143770198,"132":0.023143832303603274,"133":-0.07236987657130936,"134":0.18236248368326388,"135":0.12352356682186079,"136":0.0899464955119697,"137":0.2067748018608575,"138":0.06117144476649629,"139":-0.04233901233756528,"140":0.038531604879313654,"141":0.10688547992505854,"142":0.09744946488542909,"143":0.23238310347124738,"144":0.15883818930598367,"145":-0.02976564140205552,"146":0.03269169700119158,"147":0.0730594453714418,"148":0.0929296332444498,"149":0.06290185159804312,"150":0.1448263600959388,"151":0.09205000088496569,"152":0.06809869867657953,"153":0.06175558240328503,"154":-0.001974428010207933,"155":0.0830993757305093,"156":0.11073273761952677,"157":0.10729822676069893,"158":0.17115348056252627,"159":-0.018651761607425012,"160":0.028019711931775423,"161":-0.017584825041596218,"162":0.05792816032311006,"163":0.10139776522551124,"164":0.19865039047363262,"165":0.11948832850116987,"166":0.02163343300443175,"167":-0.0769304255113306,"168":-0.05621984956542051,"169":0.13519870301314046,"170":0.06605066985395955,"171":0.09041587860052266,"172":0.15209358746559626,"173":0.04625354145952741,"174":-0.05596782830642556,"175":0.0571387321778782,"176":0.03212443199333561,"177":0.020697817755635117,"178":0.18623814423697413,"179":0.1608263525112513,"180":0.02774869265976469,"181":-0.02592944841763152,"182":-0.050640868814845086,"183":0.04571855272416236,"184":0.06554892541503451,"185":0.1502027409621232,"186":0.15847151656583858,"187":-0.025986643428815837,"188":-0.09094933979443683,"189":0.038893465748828085,"190":0.08647852420098542,"191":-0.007765477453100772,"192":0.050211022327370264,"193":0.1474002294000099,"194":-0.017344466041444483,"195":-0.009595773459671561,"196":-0.006598734383794595,"197":-0.022292323070034196,"198":0.029757213733359326,"199":0.20849226731263681,"200":0.18637056780470546,"201":0.030158286020484357,"202":-0.029184089093833444,"203":-0.016006436284333698,"204":0.028508445579034786,"205":0.07821471183204966,"206":0.08992315019307145,"207":0.1822013288442338,"208":-0.03368339164775025,"209":-0.06911082390046887,"210":0.034913661503085856,"211":0.026601923273021088,"212":0.0008238305376841255,"213":0.08790204678754644,"214":0.2521924339028429,"215":0.031198998825184183,"216":-0.005515813603481842,"217":0.045223957251714485,"218":-0.010933989508293877,"219":0.07773345996128987,"220":0.03577838531422387,"221":0.12102165131886868,"222":0.00854358692779211,"223":-0.01839813631485777,"224":0.01244720750959642,"225":0.001133125203562429,"226":0.04397237733307764,"227":0.0916323477290554,"228":0.2530031686160411,"229":0.04821246409495538,"230":-0.06558899273124597,"231":-0.02812046518892083,"232":-0.02934592720932771,"233":0.025725769458141288,"234":0.03185892564768515,"235":0.22512240165261113,"236":0.038863807570057474,"237":-0.013773175356362605,"238":0.003998714425426321,"239":0.12504997564008488,"240":0.0423658506282793,"241":0.05080295040532659,"242":0.17449646612850925,"243":0.03375483363506446,"244":0.02568888793844425,"245":-0.03050464939651348,"246":-0.0303555214364043,"247":0.011174534616976753,"248":-0.0411031400427373,"249":0.29635136299271525,"250":0.018777818426324047,"251":0.07493265117151517,"252":0.10760843877347431,"253":0.0421434433959496,"254":0.03273008899198789,"255":0.14925171314372707,"256":0.15726129551665816,"257":0.029060679710016316,"258":-0.12011586212884366,"259":0.02185027569204147,"260":0.01768305643685195,"261":-0.07338380487203847,"262":0.02256477295750525,"263":0.1619173387187077,"264":-0.003924727924890785,"265":-0.06304435717508856,"266":0.06114897263655441,"267":-0.008747961077879781,"268":0.0007357638211730455,"269":-0.12667362722463196,"270":0.22696708912304267,"271":0.027028968640007638,"272":-0.015622216217450765,"273":0.05451001287377994,"274":0.07034995389169191,"275":0.057922942982376845,"276":0.112434955982564,"277":0.12659868250979925,"278":0.029169802464444707,"279":-0.11155162183481226,"280":0.0833721762325873,"281":-0.03481332149339161,"282":0.025822503687098788,"283":-0.08755356544721235,"284":0.09330505827485173,"285":-0.016785522765083848,"286":-0.02655837001218964,"287":0.0527344582418196,"288":-0.0007722778141557419,"289":-0.09718749929991935,"290":0.043110975235745086,"291":0.16534801299241278,"292":0.019694902992700526,"293":-0.056653448520948606,"294":0.07761173175201505,"295":-0.10225158623881145,"296":-0.139261858292648,"297":-0.1285191646832833,"298":0.03207665148321183,"299":-0.03484931275538964,"300":-0.04840014324219714,"301":0.11301741029305543,"302":-0.07012886467321618,"303":-0.08545220012677544,"304":0.25875390680279764,"305":0.14407212580326106,"306":0.009806237623441521,"307":0.02655401414677339,"308":0.06908315910080674,"309":-0.09161648702166689,"310":-0.10894719168696233,"311":0.19262864535692464,"312":0.07792546747872672,"313":-0.08782579255025814,"314":-0.030454036830369523,"315":-0.015169931020724583,"316":-0.010355562124407481,"317":-0.11907611366789637,"318":0.09460100682143496,"319":-0.02212554363611524,"320":0.019641699720739425,"321":-0.027963904333523106,"322":0.07007247338640264,"323":-0.03216187608899457,"324":-0.14682458491384184,"325":-0.033533041896628264,"326":0.040366238376445214,"327":-0.053146954374683,"328":-0.0754992910708893,"329":0.0070270563276412625,"330":-0.042672291043518405,"331":-0.2800869338075294,"332":-0.7912214579841912,"333":-0.17078627617099595,"334":-0.0025044331707002906,"335":-0.0852209947958091,"336":0.031442712242239275,"337":-0.09394571806192929,"338":-0.18174740680528087,"339":-0.8878051889916514,"340":-0.023534607879941462,"341":-0.10814582229449005,"342":-0.011946114090506723,"343":0.0043004186227708074,"344":-0.03760384733156034,"345":-0.15735526455422408,"346":-0.953162153844611,"347":-0.034930753809441155,"348":-0.05136828074263069,"349":0.011496301752759511,"350":0.08373846942465582,"351":-0.09686522025452968,"352":-0.1014019855163299,"353":-0.09796541299935523,"354":-0.10072752059081151,"355":-0.04696116715055208,"356":-0.024024164121716086,"357":-0.0016804507929830215,"358":-0.04756269459482504,"359":-0.13321841043631838,"360":-0.045648427340672336,"361":-0.2021120087844996,"362":-0.11444997315374711,"363":-0.039338428772870825,"364":0.08473745234995227,"365":-0.0688309538999959,"366":-0.17709871761644813,"367":0.02740644461321631,"368":-0.12777425886474605,"369":-0.009231171357676154,"370":-0.07562717063275101,"371":0.10595324167084236,"372":-0.060858020187786785,"373":-0.03704505879319647,"374":0.025531642975987184,"375":-0.14708701328066404,"376":-0.019117660563105328,"377":0.03799890222694135,"378":0.09225712908933947,"379":-0.0251404260827284,"380":-0.09889037872538622,"381":-0.7748025048000434,"382":-0.10153843848070358,"383":-0.0838502739478437,"384":-0.056577716192451145,"385":-0.0005851480396188828,"386":-0.013583366242132725,"387":-0.12295796781743086,"388":-0.573889809235301,"389":-0.07690644878650416,"390":-0.03202745908541698,"391":-0.018258183994237776,"392":0.05644812948268291,"393":-0.05366381126814143,"394":-0.012812523169737074,"395":-0.4673201274327884,"396":-0.12015771781678909,"397":0.02108411081377119,"398":0.04849719549635828,"399":0.06960845816712316,"400":-0.008866919639847044,"401":-0.06317535654330426,"402":-0.12436337391626362,"403":0.0347591734897491,"404":-0.037155914582830504,"405":-0.029558699188009383,"406":0.12294206500028874,"407":0.0086518607650506,"408":-0.03936150478081486,"409":0.05604561843293215,"410":-0.0012645199846569146,"411":-0.04369852972308694,"412":-0.003928620642398375,"413":0.06652681542800071,"414":-0.08834636784205768,"415":-0.07093387950394574,"416":-0.03436460973289656,"417":-0.10367934960184538,"418":0.07717413487916627,"419":-0.006472627020677803}},{"sx":1,"sy":1,"depth":420,"w":{"0":-0.056567872379177576,"1":0.0959077597179686,"2":0.008160631126420738,"3":0.021930240022061284,"4":0.08434760084397516,"5":0.061556572674489926,"6":-0.08693231264662553,"7":0.023931002454857655,"8":0.036452437668943335,"9":0.027263726075089634,"10":-0.025279548187568848,"11":-0.05577290005189347,"12":-0.03241481270625658,"13":-0.014376212789589397,"14":-0.07764091499962324,"15":0.08764072299037008,"16":0.0728840716739239,"17":-0.05506195650206487,"18":0.04218504276233692,"19":0.10268034787648095,"20":0.035315723865712925,"21":-0.04261864943958742,"22":0.034980810258960014,"23":-0.07164530530998663,"24":0.0765094498244296,"25":-0.03389535096605979,"26":-0.04642582888606428,"27":-0.06946436464611085,"28":-0.04153728552429703,"29":-0.021183335099620688,"30":0.04855583141825016,"31":0.04347797238839019,"32":0.027538444854919884,"33":-0.002316686082178514,"34":-0.01329471277964554,"35":0.009271123244271807,"36":0.07678708292326926,"37":0.05043653030189925,"38":-0.024002055493410005,"39":0.00443822955740221,"40":-0.05431140799181802,"41":0.026120452987015583,"42":0.03723239903539101,"43":0.08640689874627143,"44":0.09113709611335265,"45":0.05044424200383395,"46":-0.03858229444275158,"47":0.10288639652196946,"48":-0.01127822849932265,"49":0.061631066598099304,"50":-0.042438549769083796,"51":-0.05286540675371656,"52":-0.015612846377122343,"53":0.021246984409079284,"54":0.06195894068834473,"55":0.03356291528246873,"56":-0.04514682561334991,"57":-0.04949546066790971,"58":0.014482395459946909,"59":0.0530187153996859,"60":0.06804998591967203,"61":-0.036400203036257815,"62":0.07274427227275067,"63":0.04671220990678249,"64":0.02201072563842099,"65":0.11346999557961382,"66":-0.03736851992383213,"67":0.02430923928094302,"68":0.007536558438232789,"69":0.04474101702710278,"70":0.0778185581974634,"71":0.01298047178948914,"72":-0.016442484554282502,"73":-0.053316830328529914,"74":-0.02716356556656742,"75":0.025661369521764156,"76":0.034643747161158284,"77":0.07855712738612167,"78":0.014513116452694248,"79":-0.07016539026202263,"80":0.07648213275828805,"81":-0.03993582820769276,"82":0.016686459146264352,"83":0.08025411877259163,"84":-0.07030782255569157,"85":0.028767238442476636,"86":0.019054282045116302,"87":0.004650125008927015,"88":0.06669003850444523,"89":-0.009687998459904475,"90":0.0812388388976588,"91":0.052622726551984175,"92":0.07956972950104607,"93":-0.05060637152516674,"94":-0.051055435823837814,"95":-0.009277887527138786,"96":0.03847674384225847,"97":-0.022408948078972736,"98":0.004582594382035253,"99":-0.036683448106676585,"100":0.05149571203801439,"101":-0.03852588794866463,"102":-0.04456967484315875,"103":-0.04917481861079864,"104":0.02603771917842027,"105":-0.022916233599710657,"106":0.09594578013650458,"107":-0.045813660223054026,"108":-0.006559068119335907,"109":0.028256336198470833,"110":0.014822121104029865,"111":0.058101630598767676,"112":0.014283583822380617,"113":-0.07684842946957918,"114":0.05529530168161057,"115":0.021400347234758036,"116":0.020056821634769774,"117":0.010744173346553108,"118":-0.017726280047112446,"119":-0.000830186790913116,"120":0.06321635903923928,"121":0.011787430960289924,"122":0.026110775428041057,"123":-0.006986883581153881,"124":-0.03850977648265809,"125":0.029459095977711975,"126":-0.016241779032608705,"127":0.05849142467526622,"128":-0.025034619727216025,"129":0.09872768571140339,"130":-0.008683361264377932,"131":0.015321072278267527,"132":-0.020403488023361716,"133":-0.005541067273290327,"134":0.03823702486979238,"135":0.08501205532934548,"136":-0.035421935468444424,"137":0.01080437465538282,"138":0.01680246824090419,"139":-0.05166332453944302,"140":-0.06718457772174224,"141":0.006142369757579504,"142":-0.04379159729966871,"143":0.037269316800396156,"144":-0.018434991569858845,"145":-0.0006911069150017895,"146":-0.05025517340538552,"147":-0.013517502595677728,"148":0.07928311256858021,"149":-0.029775559200036984,"150":0.0029076201668242815,"151":0.05892787597338309,"152":-0.08005266668559038,"153":0.046342294784192724,"154":-0.0064988475574334105,"155":-0.022809421942976797,"156":-0.01823336704715519,"157":0.023137225030684667,"158":0.07214017395625623,"159":-0.009818667507057588,"160":0.025163537308973288,"161":-0.026563851222357705,"162":0.046290417739503625,"163":-0.0134035221007004,"164":0.004846300300961133,"165":0.04312424565095952,"166":0.05506801220987592,"167":-0.03675929079947051,"168":0.011736758848186436,"169":0.0026733424870835454,"170":0.02917789899900575,"171":-0.02673455832782459,"172":-0.004121482208328171,"173":0.025912811532796346,"174":-0.008780429565239289,"175":-0.011636604494804323,"176":0.06238675051555064,"177":-0.0417460177020266,"178":0.005518280162489358,"179":-0.028496233118809434,"180":0.02585291761131046,"181":0.050742431829228905,"182":0.03985166954389125,"183":0.02081604485991254,"184":-0.04170008220990358,"185":-0.052603101329471005,"186":0.15809484326328246,"187":0.050174520527036665,"188":0.01578703805224657,"189":0.01658498415874437,"190":-0.021291609172650598,"191":-0.04832840273496671,"192":-0.03048891609732854,"193":0.012461972278684463,"194":-0.04902537197553178,"195":-0.03402415947220524,"196":-0.04377145469583296,"197":-0.009908437452376916,"198":-0.0020421621676568894,"199":-0.006317105427606147,"200":0.07294940055486791,"201":-0.030853863246691794,"202":0.10905637755833197,"203":0.004496780031132079,"204":0.1264165835297666,"205":0.014519466753211531,"206":-0.02108257073750927,"207":0.013414527894423421,"208":-0.07396837494125856,"209":-0.0212350476301456,"210":-0.015924136939091626,"211":0.007775645435675666,"212":-0.008901325944872352,"213":0.035888719489357235,"214":0.0028583027293205636,"215":-0.01665239236126032,"216":0.05437097908256187,"217":0.010965744366978464,"218":0.04574807099178446,"219":0.0019056592209576518,"220":-0.05499409615567218,"221":0.012366640290501864,"222":0.07299055167808381,"223":-0.03224173853747921,"224":0.023277250513520194,"225":0.011424921339228143,"226":-0.02653502273003763,"227":-0.02902291175042235,"228":0.11983493687688876,"229":-0.01856607762753448,"230":-0.005984062399777616,"231":-0.004725902083868924,"232":0.05663773524317827,"233":0.03222472116144587,"234":0.08455572152415575,"235":0.0008412697292298747,"236":0.0673229337916585,"237":0.047260857442521204,"238":0.04803380667115647,"239":-0.004128658509574431,"240":0.03050499522777267,"241":0.016940036916298792,"242":-0.026052005084865028,"243":0.10931204938855758,"244":-0.0014094508367704975,"245":0.04760571698599951,"246":0.05561288585169936,"247":0.08621220969791138,"248":0.05551917918067042,"249":-0.0006724329887255212,"250":-0.01564908828599535,"251":0.05763524419303887,"252":-0.06571080589992442,"253":0.036927558975302546,"254":0.03238693407820559,"255":-0.03288255243174827,"256":0.026352963134248064,"257":0.09740178391397965,"258":0.025871324327264928,"259":-0.013908059335396706,"260":-0.069993314689276,"261":0.05132181593616283,"262":-0.046808777870083154,"263":-0.05221532859622132,"264":0.015096791398508464,"265":-0.012401135591606598,"266":0.019338428379339433,"267":-0.004198173322263619,"268":-0.003991275674282757,"269":0.04861906941321416,"270":-0.021618523735713994,"271":0.049900593011705144,"272":0.10045722579297209,"273":-0.10465027857085113,"274":-0.06359911817065468,"275":0.05995977372203532,"276":0.01811196191000857,"277":0.04218327945911907,"278":-0.0534310022886575,"279":0.024409942314507094,"280":-0.08698713064169478,"281":-0.012264988792116804,"282":0.05842430137164004,"283":-0.024259225661511005,"284":0.0296435424315753,"285":0.038768456969535195,"286":-0.0383596847700886,"287":0.07396292630161956,"288":-0.04940129086920378,"289":0.01800708233822105,"290":-0.037898331389341275,"291":0.04359573389738571,"292":-0.036621231730748466,"293":0.03270649825143646,"294":-0.0663034231972261,"295":-0.0873366587203408,"296":0.023291025373971645,"297":0.030118978038422953,"298":0.011730205506167775,"299":0.021492986202732677,"300":-0.021616341003867213,"301":0.012403736384916243,"302":0.018087535517932518,"303":-0.005657207350553444,"304":-0.035308362170163456,"305":-0.049123115541540245,"306":0.02152691587891116,"307":-0.091862531169289,"308":0.04688485655522621,"309":0.0002181133196528133,"310":-0.04263823319836771,"311":0.02428959336175131,"312":0.011852657589351076,"313":-0.0024990057622056886,"314":-0.005252515718131197,"315":0.04788532591957972,"316":0.07362489923135157,"317":0.03290323620571391,"318":-0.029862240384037377,"319":0.005740557740510985,"320":0.014349311849756236,"321":0.004273189023780081,"322":0.07540793625624223,"323":0.013030306791869775,"324":0.0521053972743924,"325":0.010743352787769113,"326":0.041577573397874934,"327":-0.0654084742744765,"328":-0.011640307806953432,"329":0.03062321296677222,"330":0.01741402143384634,"331":-0.017362957702754245,"332":0.016263049244968922,"333":0.05521413115994059,"334":0.03701081325945161,"335":0.011891739738493175,"336":-0.011066384880578125,"337":-0.05031890276158357,"338":-0.00551588713880539,"339":-0.08933737956575813,"340":0.1005599550399017,"341":0.10908171625076295,"342":0.029634239808984535,"343":0.04324081088751064,"344":0.01604475577990604,"345":0.09461686781345718,"346":0.06905731842469073,"347":0.002817665302901494,"348":-0.09758590863010747,"349":0.0852817392354519,"350":0.0930372448713898,"351":0.013550100605671501,"352":-0.0077210914935645575,"353":0.14424319023742477,"354":0.06910471048106535,"355":0.07047702011439483,"356":0.026314847350989077,"357":-0.06095129393401475,"358":0.012849567799531348,"359":-0.0028585672710876166,"360":0.16123944727412737,"361":-0.08105320057986817,"362":0.038799973371988004,"363":0.036178137261990026,"364":0.08160531167891995,"365":-0.019655204184760633,"366":-0.04180869737437254,"367":0.09888446144872376,"368":0.00833526841534509,"369":0.08486541283883452,"370":0.026080907440091592,"371":0.027737041133574378,"372":0.016195769559166816,"373":0.007575471328075337,"374":0.07815480615178187,"375":0.07870380909721598,"376":-0.013097496375761382,"377":0.0018385433997470725,"378":0.034039719091082554,"379":-0.0689950980066372,"380":-0.10564224322192396,"381":0.059686243854220715,"382":0.006097281656869815,"383":0.07261643372437154,"384":-0.037531434687161185,"385":-0.027915464683016315,"386":0.04721997715395746,"387":-0.013102046426522405,"388":0.03283503097818422,"389":0.04710803262157955,"390":-0.03931332665884212,"391":-0.03537966095862583,"392":-0.06228633417828789,"393":0.0891782859642291,"394":0.03862978173048142,"395":0.013675232002321965,"396":0.030780919994305447,"397":-0.05720055027501772,"398":0.01159177829447997,"399":0.001158742769071039,"400":0.040643278110074545,"401":0.039342898208131506,"402":-0.00912667723329586,"403":-0.0033424766011986217,"404":0.00778446137392479,"405":-0.002792666267725379,"406":0.02117029996501139,"407":-0.00725307415354586,"408":0.05640982289823263,"409":-0.0008511798399167806,"410":0.054109879592161375,"411":0.029200646181300586,"412":0.008958531026291905,"413":0.04483174649523764,"414":-0.0910583553215775,"415":0.11417142968269457,"416":0.02530511132039751,"417":0.08706605583229561,"418":-0.007909977649230427,"419":-0.09831765935710236}},{"sx":1,"sy":1,"depth":420,"w":{"0":0.10827388149823435,"1":0.011674368848269374,"2":0.06884415388504476,"3":0.025095702864594043,"4":0.10945540141947903,"5":0.08027455854165741,"6":0.06320337379164949,"7":0.06348062406535188,"8":0.011658561534220407,"9":0.06995589637391972,"10":0.03982051946612357,"11":-0.013618853402284194,"12":-0.09064124001825387,"13":0.04979910454179564,"14":0.05024765081130508,"15":-0.017574281919779996,"16":-0.07463331307521011,"17":-0.035888463194015764,"18":-0.05580472078893539,"19":-0.06849658935444757,"20":0.006883884153815159,"21":0.02593846177400058,"22":-0.016078108435687258,"23":-0.006391243221449281,"24":0.09002845290862499,"25":-0.008004709680951384,"26":0.0853862927368979,"27":0.0670947104402038,"28":0.04336174643929825,"29":0.012021154747357482,"30":0.027285572430678143,"31":0.0867259870306291,"32":0.06092285284644934,"33":0.06628945606016387,"34":-0.04307622857566267,"35":0.027954833515710528,"36":-0.031169553719759078,"37":-0.07289566701131003,"38":0.017444626552718653,"39":-0.03299775697556515,"40":-0.000013056422603626466,"41":0.02157753764269181,"42":0.03010885407348439,"43":0.0018894613154621265,"44":0.03125164530498633,"45":-0.04862419477225208,"46":-0.012561926130214333,"47":0.08276372765732469,"48":-0.020902170968738795,"49":0.01573491051244559,"50":0.05360971936855359,"51":0.03931040757394064,"52":0.07531068870926061,"53":-0.04789221147103924,"54":-0.02996651008786012,"55":0.03787158710771533,"56":-0.02456778502408892,"57":-0.03274973172832044,"58":0.04741142181191307,"59":0.03293976873860292,"60":0.037119962685608944,"61":0.11692943672787626,"62":0.022688675556356255,"63":-0.01645670416770912,"64":-0.005719449842683607,"65":-0.024429650012397476,"66":0.14644352270976554,"67":-0.008700089125054865,"68":0.02415858775773158,"69":0.00021890609908340708,"70":-0.01808488667298338,"71":0.03083523980363979,"72":-0.013622428623138696,"73":-0.09305696285405732,"74":0.018554386743822367,"75":-0.07676683029465901,"76":-0.010674078089741558,"77":0.05158858922219304,"78":0.030884138170383716,"79":-0.002474887128132032,"80":0.044151413137377936,"81":0.045756091411387506,"82":0.055966172293622975,"83":0.006320790929139145,"84":0.005235648084961838,"85":-0.11206331673981065,"86":0.04993925190736442,"87":0.03131493310783608,"88":0.0070784764422670045,"89":0.015186548306497183,"90":0.03412839137533613,"91":-0.01376835270008495,"92":0.007302719121268741,"93":-0.019610106784248963,"94":0.020431745680893672,"95":-0.026468366820969425,"96":0.07183197873902879,"97":0.00933456487737908,"98":0.012393629163955824,"99":0.0956494109647207,"100":0.060564085601956856,"101":0.08425912125024672,"102":-0.03515869513271913,"103":0.004067622790114441,"104":-0.0024442908619956498,"105":0.03912616263055954,"106":-0.01572718764312819,"107":0.06382809551435346,"108":-0.04775413235413134,"109":0.02870865070936942,"110":0.030557366165320777,"111":0.03654159009758334,"112":-0.027901573823649373,"113":-0.010093187416449724,"114":-0.010474744626297477,"115":-0.06555705879741447,"116":0.06787107066647108,"117":0.03407313712961186,"118":-0.0619399316898856,"119":0.0630749010229692,"120":0.07375251354848882,"121":0.025943121140216643,"122":0.17499903734431604,"123":0.07578872173418386,"124":0.07815426128496254,"125":-0.07469512905167154,"126":-0.0023575029834183407,"127":0.041301928878841376,"128":-0.007243518751395663,"129":0.06664831467392553,"130":-0.08732459603453832,"131":0.029664730550667665,"132":0.014901157339441558,"133":-0.009302781955160768,"134":0.054024936689978244,"135":0.03592431951847266,"136":0.04634811482210579,"137":-0.09762949952257476,"138":-0.02446547657246853,"139":0.0416999631309814,"140":0.026967839925936588,"141":0.00196012798802586,"142":0.08697374180501581,"143":0.014729378280503556,"144":0.04870452657245031,"145":-0.03466579878668689,"146":-0.01038194112098639,"147":-0.02586694890263345,"148":0.07810801572599556,"149":0.05509326982219219,"150":0.032799063138347996,"151":-0.010594597362094423,"152":-0.03382921760645936,"153":0.05032889222628837,"154":0.025101867137570025,"155":0.06440181457718937,"156":0.009315596167241313,"157":-0.05287383899411515,"158":0.008903258229929946,"159":0.0359090362639594,"160":0.03724450005169159,"161":0.033861323174334705,"162":-0.001893013088856807,"163":-0.025657416895714928,"164":0.08847633934257255,"165":-0.005679860332914514,"166":0.0029359217296252528,"167":0.059725906522327205,"168":0.04382406658846188,"169":0.023522444109896717,"170":-0.010124668005920845,"171":0.09601551272920705,"172":0.025556111754648586,"173":-0.0442567906026743,"174":-0.0008480569076220199,"175":0.013077548619806357,"176":-0.027478015556057306,"177":0.027053801565870495,"178":0.08371053630136556,"179":0.017737289796904702,"180":0.03085101849774074,"181":-0.01736420978110841,"182":0.0035767633500658875,"183":0.013314163342790486,"184":0.01850426832538235,"185":0.06124254345075617,"186":-0.0492000008787185,"187":-0.03467220714556725,"188":0.0748507278914525,"189":0.011034754559085593,"190":-0.012386399408567516,"191":0.01359494812288067,"192":0.030540160886824288,"193":0.02381066886576957,"194":0.006594940154468476,"195":-0.03439563334295385,"196":-0.022013934047697862,"197":-0.04687432525534085,"198":0.009380101845588299,"199":0.03777174210940595,"200":-0.011461228715993055,"201":0.026967138063169915,"202":-0.06568916686320306,"203":0.08169255873576957,"204":-0.021745257355172343,"205":0.04334681201708067,"206":0.014665641749887246,"207":0.03664729059980448,"208":-0.004425504639504464,"209":-0.06629023417839647,"210":0.006190239549476248,"211":0.023879807867892403,"212":0.09344345307033369,"213":0.004950961950233724,"214":0.10670137579379226,"215":0.008681999533742334,"216":-0.020632227390175978,"217":-0.011417868053951178,"218":-0.014955735701345873,"219":0.001832638441805255,"220":0.06375411181029733,"221":-0.005236705900568371,"222":0.03266450607161956,"223":-0.041123412491602576,"224":0.015648873274854484,"225":0.11171665834938084,"226":0.005752552585728112,"227":0.03376766986971687,"228":-0.059158497086027155,"229":-0.036880042507067605,"230":0.007002143587972226,"231":0.03809314312449136,"232":-0.028697853617857483,"233":-0.047347380214439155,"234":0.01773917824302982,"235":0.047439507850899156,"236":-0.06328776039976428,"237":0.010458853483976282,"238":0.07188244903347574,"239":0.02197109962463931,"240":-0.006007090370131506,"241":0.00956674270591092,"242":-0.02613221619917437,"243":-0.023333694012684134,"244":0.03664067225056641,"245":-0.00842975071365344,"246":0.04095225125963667,"247":0.044403012656117895,"248":0.07606692821899194,"249":-0.027846345924684997,"250":0.03533870853239813,"251":-0.014245258125267724,"252":-0.038479564535556655,"253":0.08711973107533336,"254":0.08561319303518546,"255":0.012101775663804885,"256":-0.023539673924608814,"257":0.07902881140747457,"258":-0.013698067020518893,"259":-0.024974962899141705,"260":-0.022826685795501758,"261":-0.027194644390451488,"262":0.0312471311106106,"263":0.0006404683409727912,"264":0.0216516422996593,"265":-0.03687147711698642,"266":0.0619239285043581,"267":-0.014601014192312111,"268":0.02130030186987922,"269":-0.023884606102482487,"270":0.05037178895997097,"271":-0.07909731902007976,"272":0.07702620358005621,"273":0.06055933479122678,"274":0.0013349554602942089,"275":0.015175157849910387,"276":-0.009591465405822933,"277":-0.006901266188348696,"278":0.06401355485011741,"279":0.05299440497177805,"280":-0.04682618660588181,"281":0.007807569517739387,"282":-0.0277424649813813,"283":0.02609392596729666,"284":-0.02185021187792449,"285":0.04931372946231082,"286":-0.008367037227901233,"287":-0.009642555317364737,"288":-0.011905661294196316,"289":0.007527319150621828,"290":-0.02597017507033856,"291":-0.0555457033050629,"292":-0.032403274162948734,"293":0.01432596138504786,"294":-0.02517695028793389,"295":-0.03425616700040593,"296":-0.02093808956278506,"297":0.020734390519493898,"298":0.1304361707370942,"299":-0.013194718230635376,"300":-0.06412382326715355,"301":-0.03168898042757957,"302":-0.025668194263290287,"303":-0.004680320695748753,"304":0.09288828999535056,"305":0.01908179364940413,"306":-0.04637593134982761,"307":-0.029716100205955047,"308":-0.028308992439772657,"309":-0.012667427096707692,"310":0.010013834827964061,"311":-0.027785508387594963,"312":0.06821618026086253,"313":0.03171365537467368,"314":0.022135742504530716,"315":0.08476148330879274,"316":0.06106781574411598,"317":0.00632298822498421,"318":0.05241215149388948,"319":-0.005263870152482106,"320":0.0889431794997856,"321":-0.011128628905775623,"322":-0.05586762149397327,"323":0.0443349641206028,"324":-0.04596128844859392,"325":0.05081287739824248,"326":-0.005156896088013854,"327":0.009697328238196946,"328":0.00309551953236987,"329":0.03435450063627848,"330":0.11334989455795166,"331":0.004283433716812362,"332":-0.0569681065630667,"333":0.010230268816305926,"334":-0.0035468223550020202,"335":-0.018917616549199223,"336":-0.04347779930498994,"337":0.06562183601824842,"338":0.016271048268576657,"339":0.035026099698909824,"340":-0.11280868245406395,"341":-0.058861907902205454,"342":0.01503742947844234,"343":0.02859199443255893,"344":-0.1077761260293592,"345":-0.04296253041459826,"346":0.06093231128810647,"347":0.03036944384319959,"348":0.03574692224763812,"349":0.02469386811215759,"350":-0.04407078431471393,"351":-0.035023050862132026,"352":-0.049961974801244445,"353":0.05525230123256128,"354":0.018174559695207003,"355":0.04878332488969963,"356":-0.0005948021875500908,"357":-0.042045737771619476,"358":0.05108817810747957,"359":0.0005270210542048716,"360":0.034596945120670436,"361":-0.0019653466257616866,"362":0.05599642425968255,"363":0.013401165697922412,"364":0.029869250188387302,"365":-0.010562252392342228,"366":0.01167814281983152,"367":0.19367619026014782,"368":0.042068188584327156,"369":0.033202897191986526,"370":0.0007874942556840971,"371":0.06628372264216469,"372":-0.05444262175594484,"373":0.016206040094044145,"374":0.07281599756164839,"375":0.01620848451551136,"376":0.0510714634280738,"377":0.1052804948357025,"378":-0.011040455887218026,"379":0.011124919317832587,"380":0.027270848607647943,"381":0.029835706936246986,"382":-0.1011883140748907,"383":0.06021477397201376,"384":0.07228215900221258,"385":0.006407051636761438,"386":0.05708297192758703,"387":0.06800089132271891,"388":-0.016084617552329435,"389":0.05581982545687586,"390":0.019018475540471105,"391":0.0322128500604623,"392":0.01056034504976987,"393":0.018982246380510697,"394":-0.029256871113590766,"395":0.037401308154518184,"396":0.038688696167877,"397":-0.008290843038032476,"398":0.0020797931852330432,"399":-0.058104236974578484,"400":0.06218400119387112,"401":-0.11067614416254945,"402":0.0007254830185281135,"403":0.06744211379254697,"404":0.018919779496284442,"405":0.009144058734112125,"406":0.04711280140500573,"407":-0.013588787588601296,"408":-0.006508781929046439,"409":0.02232589065310951,"410":0.057611706191912214,"411":-0.07224977250167768,"412":0.058382735240263633,"413":0.04143037517533832,"414":0.027105784680074723,"415":0.036522066347582455,"416":0.0540190615563214,"417":0.01648743137505396,"418":0.011444907459788562,"419":0.0733143001326993}},{"sx":1,"sy":1,"depth":420,"w":{"0":0.026860354453958114,"1":0.025328142983155177,"2":-0.039488486598211595,"3":-0.0036982027070930758,"4":0.07708051082213489,"5":-0.02580949259397374,"6":-0.0626087648304923,"7":-0.0825232396268081,"8":0.07564998949660197,"9":-0.028907107088915696,"10":0.1001238783004379,"11":0.04614123921595984,"12":0.0012548877380547387,"13":-0.07313633705029167,"14":0.004594856193167696,"15":-0.013631187755580873,"16":0.048002081581036,"17":-0.01443515477981046,"18":0.032482030691920315,"19":0.07458626417367721,"20":0.024259651560633245,"21":0.05477981290462634,"22":-0.05345097808043049,"23":0.034479861794529276,"24":-0.026667601734298035,"25":0.08015338062160812,"26":-0.006889851841365034,"27":-0.015806074104546923,"28":0.03004608677532577,"29":0.11987551393162231,"30":0.05390559260148652,"31":0.046020057948975596,"32":-0.027159470567816153,"33":0.05017406300919391,"34":0.021343055022452893,"35":-0.02695667769532589,"36":0.08164447016297084,"37":0.009293888086447273,"38":-0.011179756815086787,"39":0.006206607617150637,"40":0.04348300858889772,"41":-0.017678713441550507,"42":-0.03144939654559789,"43":0.10542020755800074,"44":0.0121362563050123,"45":-0.008378292037428818,"46":-0.034560639705091364,"47":0.08251040088588218,"48":-0.01392319756256329,"49":0.021585064418612715,"50":0.07147927023172947,"51":-0.03060244736536256,"52":-0.0031816347202776895,"53":-0.020675297406633226,"54":0.02195917563029918,"55":0.031114241880140503,"56":-0.09089121588501092,"57":-0.08605067325499012,"58":0.01810275267121713,"59":0.08055931487785942,"60":-0.04837790945293891,"61":0.07821009994570181,"62":0.047798983421611846,"63":-0.06572977903255466,"64":0.03411279798066364,"65":0.008935720432660273,"66":-0.011920021799214933,"67":0.006003914788026404,"68":-0.036420912797838434,"69":0.020331146120982965,"70":0.008502722616351417,"71":0.03683355094508768,"72":-0.007926848606837381,"73":0.02501800909292189,"74":-0.068392628436861,"75":0.08825501160033096,"76":0.00019474129902640087,"77":0.07407549790663277,"78":0.03677055131070132,"79":0.014526834225304467,"80":0.0225244767777156,"81":0.018325355432506386,"82":0.09470128639553903,"83":-0.009643096346682952,"84":0.015265530304166516,"85":0.06583778055550343,"86":0.10688918745316096,"87":0.08208897893876321,"88":0.10403911222490508,"89":0.06772036224105475,"90":0.01977138570310885,"91":0.024921197167079787,"92":-0.0117217966841156,"93":0.09308278259722906,"94":0.03215091906092193,"95":0.017523945657009498,"96":-0.04295097120657828,"97":-0.025309104329234413,"98":0.030629270107451128,"99":0.080594413643839,"100":0.09374217850506632,"101":0.04704093585001417,"102":-0.006112017128212772,"103":0.035896139295699785,"104":-0.0036917280636096215,"105":0.09834603460143015,"106":0.0544718988897397,"107":0.06500783365472615,"108":-0.03193343151444477,"109":0.03037136150750226,"110":-0.0010593157253682016,"111":0.07955790078133203,"112":-0.00441823777333271,"113":0.04381436204778137,"114":0.037919225732434336,"115":0.06255255315503506,"116":-0.022000416080118112,"117":-0.013257708729361698,"118":0.01337173717319836,"119":0.04102450109757102,"120":0.074112196984097,"121":0.0181516567355615,"122":-0.00927068308084649,"123":-0.0035198203459942913,"124":0.034198391470018547,"125":0.062941552806138,"126":0.10045820861823083,"127":-0.007104768111133297,"128":-0.008090069722803085,"129":-0.05108006480767902,"130":-0.029715449875123714,"131":-0.016863432421960343,"132":0.0008722030376504505,"133":0.07542893580913036,"134":0.04044565655749228,"135":0.013091324260260035,"136":-0.05048675151525282,"137":0.00916315971068982,"138":0.05611316146945592,"139":-0.010993949309275386,"140":-0.04136644188587095,"141":-0.045122133920476475,"142":0.07828425300305253,"143":0.016928281393731995,"144":-0.04859669634442637,"145":-0.03107951239116942,"146":0.05008305933146358,"147":0.042298909012669,"148":-0.03905754046399295,"149":0.0004202659638643602,"150":0.06813172355973093,"151":0.028869894190866944,"152":0.05323164716149522,"153":0.02371014852151005,"154":0.01331372379473117,"155":0.011767041372739576,"156":-0.0947713390608813,"157":0.1286351246382343,"158":0.08990728486335939,"159":-0.08762792066160291,"160":-0.08745447742024938,"161":-0.016018313241036263,"162":0.006484293017606478,"163":0.014824473684988777,"164":-0.03705222042194139,"165":0.025362606781605145,"166":-0.050801882970722946,"167":-0.01858546502879022,"168":-0.05710314917254245,"169":0.010567841841982718,"170":0.0181113515570178,"171":0.034271405587800716,"172":0.08122858403677016,"173":-0.022179235648142923,"174":-0.04694362931898049,"175":-0.033314007462751566,"176":-0.0049993093386617804,"177":0.02621030351151388,"178":0.06052311387052266,"179":-0.017699614331248427,"180":0.030101557202506245,"181":-0.024731314298929694,"182":-0.045717669908403175,"183":0.004913595866112614,"184":0.04815173997371064,"185":0.06286592460464424,"186":0.097089853864979,"187":0.041490311833188354,"188":-0.04126019113797246,"189":0.023221621515169752,"190":0.04132969859543411,"191":0.0103499173926658,"192":0.06464844658729851,"193":-0.02950707254728032,"194":-0.03649243902583482,"195":0.022498894864126064,"196":0.07333366108353746,"197":-0.04878472064318144,"198":0.050536862426405885,"199":0.05624148543719886,"200":-0.043284748654607436,"201":-0.027178503531285696,"202":0.0392200282472267,"203":-0.03474086676543325,"204":0.023330733475693234,"205":0.05241946540903494,"206":-0.026130436853544988,"207":-0.03705136956852457,"208":0.06531827303468372,"209":0.05468055452972233,"210":0.0946325636035028,"211":-0.0035800152106159632,"212":0.02573709094176278,"213":0.06382310753346332,"214":0.07981754857395629,"215":-0.022787782055415144,"216":-0.012613888791118986,"217":0.05440134601979175,"218":-0.03056105111657446,"219":0.013294122455706103,"220":0.031955867511733245,"221":0.09344504553360379,"222":0.01973598061403526,"223":-0.06856463881086555,"224":-0.03786482155461815,"225":0.012288803023564374,"226":-0.019745971985450674,"227":0.07247352003376156,"228":0.06921687801608191,"229":0.03659170784778915,"230":-0.03211840797851848,"231":0.04967919815470914,"232":0.036308617871833954,"233":0.03817341237802977,"234":-0.06731194432850297,"235":0.07927209962495138,"236":0.05135752014927603,"237":-0.020376863473580812,"238":0.0022325187064941862,"239":-0.00850708769434935,"240":-0.10833008220013168,"241":-0.06577190765990366,"242":-0.009078209507244243,"243":0.10913715482433245,"244":0.06083922538618817,"245":-0.006991589958956818,"246":0.04282308019167083,"247":0.015567216329036114,"248":0.030366275120703345,"249":-0.019430935340510682,"250":0.02665074444943678,"251":-0.008274540796523159,"252":0.028293422857307536,"253":0.044678082656231174,"254":0.0024157354502463797,"255":0.0024479784888462603,"256":0.08600867914408458,"257":0.06194936846679747,"258":0.002613202100423365,"259":-0.025347872322414085,"260":0.03608024830883205,"261":0.039609830518963,"262":-0.06624655046421604,"263":0.04231103632844589,"264":0.040400631551999605,"265":0.059790027608797515,"266":-0.050452082405320745,"267":0.1787194235927735,"268":-0.016929990697085676,"269":-0.008582605209506407,"270":0.023662114762370845,"271":-0.054336286276559516,"272":0.022756262737150236,"273":0.023058763777891914,"274":0.0068055448170976736,"275":-0.06166104196449847,"276":0.03602106865912418,"277":-0.06644570533134603,"278":-0.010903380605494365,"279":0.05003944850638334,"280":0.03302857903228549,"281":0.03755152919706363,"282":-0.014799693100527988,"283":0.008005906461224925,"284":0.04342342502891025,"285":-0.0248664836648364,"286":0.04850673573180122,"287":0.06456403257308588,"288":-0.0496386499487678,"289":-0.010147289664131556,"290":0.07869247793438706,"291":0.07007422545899618,"292":-0.054958053460261995,"293":0.04056295099111089,"294":-0.07476820805537711,"295":0.0308821390478368,"296":0.01209616155423161,"297":-0.05036710800864782,"298":0.07672243289250905,"299":-0.002675898804015599,"300":-0.029372979779949134,"301":-0.044612629608062386,"302":0.006590379958506237,"303":0.07509289745178441,"304":0.041290695294295625,"305":0.04440486553103317,"306":-0.01404844746559539,"307":-0.00980349995126122,"308":-0.00958258694711541,"309":0.04781040016742263,"310":-0.023436486004014986,"311":-0.05892523921513089,"312":-0.15313299185868154,"313":-0.02753064390651548,"314":0.014745689404500405,"315":0.10992272423105676,"316":0.004230656218321188,"317":0.002866722636126212,"318":-0.033115225772196076,"319":-0.008528374272306622,"320":0.05683625191026435,"321":0.06797001915400469,"322":-0.09394283540916147,"323":0.016641508505448373,"324":-0.08105590413566054,"325":0.0021120480425629476,"326":-0.021995716724808937,"327":0.043487074372488374,"328":0.05014707884283262,"329":0.024367238523071398,"330":0.01012946362115839,"331":0.10681144885352484,"332":0.00473867589996183,"333":0.04176000406964895,"334":-0.046605472208869805,"335":-0.018026681411166486,"336":-0.023062582331141217,"337":0.010774766634460812,"338":-0.013507499519993268,"339":0.04589116259441343,"340":0.06077111411561227,"341":-0.034311183373905846,"342":0.07799363437150628,"343":-0.004594566402040296,"344":0.00633963334889612,"345":0.09138756444895815,"346":-0.03054430549500828,"347":0.016124320214135082,"348":0.07863310237198856,"349":0.024620713546525827,"350":-0.020909692323085732,"351":0.03685807772981264,"352":-0.02027422821617861,"353":0.09292249054027167,"354":-0.05055398936567415,"355":0.06332766562866418,"356":0.10735031715851386,"357":0.0588112374188845,"358":0.005502347285030949,"359":0.009705503388447577,"360":0.03799857744776351,"361":-0.012347826855671564,"362":-0.007746078983164,"363":0.01397164763279608,"364":0.0671317556433455,"365":0.00034840437569255006,"366":-0.040924567289948026,"367":0.08550991521833269,"368":0.06549952446266613,"369":0.009128393213637825,"370":-0.0373071634206647,"371":0.008418151657797008,"372":0.05222441955645853,"373":-0.03551456306134716,"374":0.10104401312597705,"375":0.08995142002914468,"376":-0.007715876947714106,"377":0.06528117764015585,"378":0.05084799796149466,"379":0.025854496082059055,"380":-0.024665798492474047,"381":0.021460885161367047,"382":0.02390095076720989,"383":-0.023969890105717345,"384":0.0016091658384405445,"385":0.011953353290192932,"386":0.034964306616865046,"387":-0.008556565447471368,"388":0.09702661141444541,"389":0.05966894700670472,"390":0.010969684686069478,"391":0.10328357733562554,"392":-0.007839330789058034,"393":0.0036988904253338773,"394":0.07550177802560724,"395":0.0020722161769947734,"396":-0.04765116972186844,"397":0.03003048068094902,"398":0.03933417917320806,"399":0.025922905139259374,"400":0.048379210358528026,"401":0.04920152847275765,"402":0.07030476765884647,"403":0.018824793508809345,"404":0.0772163841901361,"405":0.09405274257145801,"406":-0.045251495220602754,"407":-0.0415506384032772,"408":0.05419105187865118,"409":-0.008081584264011973,"410":-0.025608427964101302,"411":-0.001494572551370195,"412":0.038489378738983934,"413":-0.03491493012427715,"414":0.0324845533261343,"415":0.04040308105157162,"416":-0.004639425686029332,"417":-0.03828529197573586,"418":0.007505624379270308,"419":0.016384490289677364}},{"sx":1,"sy":1,"depth":420,"w":{"0":-0.08546768617961877,"1":0.06761524142709711,"2":-0.04758805039989062,"3":-0.14043332528880337,"4":0.08648757503911848,"5":0.05075311475357413,"6":0.061876006862418426,"7":-0.12203145848192415,"8":0.0657071621168028,"9":-0.006743959480461086,"10":-0.07463108750076947,"11":-0.12857545535772405,"12":0.007821770675589307,"13":-0.03028671080516233,"14":-0.054449140151146526,"15":0.048097592626016046,"16":-0.08941592390908272,"17":-0.00004198927173100584,"18":-0.06688117183896662,"19":-0.012583640210734234,"20":0.03674198559030911,"21":-0.009990878012297687,"22":0.07506903763285032,"23":0.10224393775494413,"24":0.03557679533397163,"25":0.06483225192483018,"26":-0.006512055997093473,"27":-0.028277792599461258,"28":-0.03684889247660653,"29":0.043832138920225305,"30":-0.04082941968547936,"31":0.04547790251643003,"32":-0.04519467384298218,"33":-0.020201460693330023,"34":-0.051727552484117326,"35":-0.13649375056998506,"36":0.08832730639252892,"37":-0.07854373927782314,"38":0.024222570351828728,"39":-0.040258920685684665,"40":-0.08987214637256526,"41":0.027929238821015084,"42":-0.0507409474795631,"43":0.0009788932804609357,"44":-0.034752141248676566,"45":0.03918576917280709,"46":-0.1014322901692306,"47":-0.005135499444930252,"48":-0.00828031408041283,"49":-0.1532715396094335,"50":0.03823558371606747,"51":-0.13416462018284175,"52":0.06613349295918215,"53":-0.015428266651674146,"54":0.07674206496387748,"55":0.0595473788177325,"56":-0.07144046041568303,"57":-0.05172427158770837,"58":-0.15343046818738895,"59":0.045487449968160995,"60":-0.09347193009589731,"61":0.06473993944031173,"62":0.04316491445805918,"63":-0.05873943525408528,"64":0.1273764440587131,"65":0.03143885222151178,"66":-0.06538593377047099,"67":0.019091759551445254,"68":0.02767840555343197,"69":0.0829781050324706,"70":-0.0063160156454042035,"71":0.07617153437531812,"72":-0.031337440833522946,"73":0.11553645828762231,"74":-0.10631536334039647,"75":0.034088944220052625,"76":0.1385687579034792,"77":-0.03348201656424004,"78":0.02703862528604357,"79":-0.016633677140850203,"80":-0.00004603968289649716,"81":-0.07642212978788326,"82":-0.004839269434482898,"83":-0.011734983803165967,"84":-0.1302690615943112,"85":0.059998650598649284,"86":-0.010204514664473753,"87":0.04889123261262805,"88":-0.09549057627298828,"89":0.04336435298121538,"90":-0.000380283513795891,"91":0.001216972801534189,"92":0.029443069401601428,"93":-0.030221233508851315,"94":-0.019560132100240133,"95":0.012394203226744052,"96":-0.0016379075287986083,"97":-0.005982839279996381,"98":-0.09249551861897935,"99":-0.1090205756484903,"100":0.04139358713222883,"101":-0.09015287900619055,"102":0.10104615442408221,"103":-0.007040007089722792,"104":-0.01260817120369754,"105":-0.12446470247037829,"106":0.05998217524103534,"107":0.10216331659384709,"108":-0.008601193403386845,"109":-0.058224479153254044,"110":-0.0091805548558193,"111":0.028577609625455712,"112":-0.10074846461830625,"113":-0.09153510317730128,"114":0.008211029583844611,"115":0.09693248009829471,"116":-0.0024786944121415353,"117":0.05451940606067029,"118":-0.07230985051582793,"119":0.015049706572434023,"120":-0.1259769800573678,"121":-0.005016035231719949,"122":0.020593369592812962,"123":-0.04145009420504028,"124":0.011480979414115848,"125":0.06412436569870208,"126":-0.07141890201484319,"127":0.08629835877610861,"128":0.007826146732891304,"129":-0.03317319040763307,"130":-0.05439437132797825,"131":0.04278921122484679,"132":-0.05402906414422236,"133":-0.12658432415082266,"134":-0.28242065517540443,"135":0.1039520472983341,"136":0.07335849462408267,"137":-0.010117052024572065,"138":-0.03321938691191061,"139":-0.11768534761926507,"140":-0.09300548797211668,"141":-0.07973329997721015,"142":0.11191258481778646,"143":0.03252411252283929,"144":0.03922290835431042,"145":-0.03906471745390218,"146":0.02124905955851908,"147":0.006373291362684568,"148":-0.11371008027136027,"149":-0.03617117456078596,"150":-0.0775143154892345,"151":0.09299049752350402,"152":0.0012622437533408519,"153":0.09672327695298069,"154":-0.15059320676952304,"155":-0.012721147622527757,"156":0.016159969384598412,"157":-0.02803710337023533,"158":0.1396435631896174,"159":0.05588393575965006,"160":0.03686026735883128,"161":-0.1726321872833273,"162":0.06291177972077486,"163":-0.05414930707345524,"164":-0.04323872498989278,"165":0.02809566033851386,"166":0.0328408229424561,"167":-0.0389423314016547,"168":-0.027081323607262984,"169":0.015544802567236726,"170":-0.05710277091006386,"171":-0.057215417030843145,"172":0.06517257195123549,"173":0.09507100990531783,"174":-0.06335790755030443,"175":-0.08937346952863588,"176":-0.02951966681075364,"177":-0.10343175303243046,"178":-0.06000928447450811,"179":0.10764365394375348,"180":0.1467356645622299,"181":-0.038060088795198524,"182":-0.11590637314962973,"183":0.03663692933924819,"184":-0.0383819470046638,"185":-0.0441857204314383,"186":0.22924080050581178,"187":0.06819273883608334,"188":0.03833261075968639,"189":-0.215338188527002,"190":0.06577749590292607,"191":0.031828757832714105,"192":0.09025260125322163,"193":0.15626587576142384,"194":0.06150307470776811,"195":0.052807776955083464,"196":-0.1591906766852454,"197":-0.016123057200726643,"198":-0.13615530625778163,"199":-0.03222265168214229,"200":0.090099748333768,"201":0.12352965136608,"202":-0.04609913549804611,"203":-0.10661793287154174,"204":0.03310483971928565,"205":-0.03815439159923343,"206":0.010994418488303551,"207":-0.0012162678346401262,"208":0.12103762436082428,"209":-0.03715057967892183,"210":-0.25548963244677264,"211":-0.05131781450621485,"212":0.058125471290272776,"213":-0.03153610334701195,"214":0.04962894009819643,"215":0.08631524060343278,"216":0.08908889750473828,"217":-0.07620796746904573,"218":0.07780421234135396,"219":-0.09463270625738081,"220":-0.16164430345523034,"221":0.1143826928347881,"222":0.10606869578515211,"223":0.05795664345287481,"224":-0.05512464785477441,"225":-0.022384728343503836,"226":-0.07728550287348443,"227":0.12404130021283358,"228":0.11055198620266003,"229":0.14107377552215075,"230":0.02453059365114562,"231":-0.13914578729228536,"232":-0.10028506829774562,"233":0.10461820710565575,"234":0.20865376558717277,"235":0.06599404759012013,"236":0.13472583623088194,"237":0.10259647233003984,"238":-0.0060677662412551734,"239":-0.09063866341534574,"240":-0.005112692834811784,"241":-0.07794011442835945,"242":0.07674970961060977,"243":0.13088523759376747,"244":0.05207659409379282,"245":-0.10754229303865384,"246":0.10100909759262665,"247":-0.09837392325171902,"248":-0.11438467420583702,"249":0.020704283534613607,"250":0.1985484859393098,"251":0.06917542299524375,"252":-0.043555644764405814,"253":-0.08474248775215389,"254":-0.03159518152474632,"255":0.079259730915693,"256":0.22574135788384278,"257":0.17222372475792075,"258":0.11636242462775054,"259":-0.158389614323673,"260":-0.035091825167968764,"261":0.20609757609322377,"262":-0.06745492772841542,"263":0.018447077930201616,"264":0.11647659351882217,"265":0.07289271160352938,"266":-0.07219823423502625,"267":-0.045800488613145035,"268":0.10374100388843936,"269":0.05636441196032109,"270":-0.013056962088795194,"271":0.10999912514040949,"272":0.04172273646507667,"273":-0.0672377840711938,"274":0.07138777780938407,"275":0.20825365223709405,"276":0.3584944461644357,"277":0.04186929769090968,"278":0.1259774397333038,"279":-0.07614590080314282,"280":-0.06430442237227729,"281":0.10542355144722812,"282":0.23716139154653,"283":0.0059441129826838645,"284":0.06657806807295306,"285":0.05557345288684109,"286":0.023680588566283602,"287":-0.04318360787498101,"288":0.058330296484542896,"289":0.47350490093718267,"290":0.06214564669995347,"291":0.08870385216115041,"292":0.19101985191607182,"293":0.006998052963346803,"294":-0.020228616493557925,"295":0.1846462664174402,"296":0.36769232542101493,"297":-0.0782594509587143,"298":0.02394124204944866,"299":0.13579550767549145,"300":-0.05868618166519782,"301":-0.05375802817717778,"302":0.1584306524565797,"303":0.29691978699581856,"304":0.4154003839289459,"305":0.13306090138469095,"306":0.1192221137591517,"307":-0.09788827864966282,"308":-0.07463185944805976,"309":0.1484194520432118,"310":0.5114978495910043,"311":0.258411598465381,"312":-0.011773113926478418,"313":0.15942615698296628,"314":-0.07339977270666717,"315":-0.03392920799632912,"316":0.17030728623213118,"317":0.5093442349329778,"318":0.14027491501887432,"319":0.008324669092906797,"320":0.05585754014993268,"321":0.09310093758831647,"322":0.011969429058596024,"323":0.0675196571451717,"324":0.6170194997955278,"325":0.3860930433596432,"326":0.0652226863055141,"327":0.10957714041667536,"328":0.007126920631988011,"329":-0.09249010046906508,"330":0.005749780992451674,"331":0.6233093316469691,"332":-0.44006273286766756,"333":0.019112587175940964,"334":0.14355129278572623,"335":0.07851234087929251,"336":-0.16212907631734677,"337":0.0526449128882828,"338":0.720523269990073,"339":-0.5750015956105504,"340":0.007552565052393473,"341":0.14717882609683333,"342":0.018550844481569833,"343":-0.050455864071522374,"344":0.08463114075504975,"345":0.6121210857535229,"346":-0.6383203988583818,"347":-0.0027221340282628263,"348":-0.013079072773128307,"349":0.03337223628246741,"350":0.07817612680242027,"351":0.15917212905339753,"352":0.651634056332114,"353":-0.17632833414845178,"354":0.05164030866619728,"355":0.05357452807993335,"356":-0.021177445450799214,"357":-0.05255768543003313,"358":0.17160068638372597,"359":0.45727054131447087,"360":-0.10975600857042156,"361":0.07146707833249749,"362":0.07188100001717969,"363":-0.015623615791742481,"364":-0.03761917468711281,"365":0.14013885646160154,"366":0.3766050841467521,"367":-0.023104236184484542,"368":0.0052130346404680545,"369":0.25000267592198405,"370":0.11045279882351872,"371":-0.1083631426454466,"372":0.12631835628409865,"373":0.3345378107679381,"374":0.09565021456326232,"375":-0.17555092169593364,"376":0.138220851764295,"377":0.0896666317222695,"378":-0.09612883747819927,"379":0.16204548432853,"380":0.30545588825273867,"381":-0.392097582471958,"382":0.0018502857519410109,"383":0.1069778705576554,"384":0.11521671273932686,"385":-0.19263973913638144,"386":0.026957293117561745,"387":0.0772940318779189,"388":-0.5172203640809879,"389":0.0011533767461888401,"390":0.06676160042485645,"391":-0.011303897255881974,"392":-0.039871937117590926,"393":0.08101114273773598,"394":0.017204730834728565,"395":-0.5503044628222211,"396":-0.036118143847019404,"397":0.08554785823821819,"398":0.041733072997992206,"399":-0.047789800039990546,"400":0.11398532419254068,"401":-0.063215284683879,"402":0.10529475986049217,"403":0.04868610200091061,"404":0.13804228679788672,"405":0.06566114742333237,"406":-0.05969005614747158,"407":-0.0420793348208637,"408":0.09327948363153361,"409":-0.041069299542211404,"410":-0.06179485821944242,"411":0.05045846320134437,"412":0.17355160618000498,"413":-0.18154219303627508,"414":-0.007890360124915811,"415":0.15521844914565747,"416":0.07936891987073223,"417":-0.21646047558360995,"418":-0.042172047723426094,"419":0.09730131980699151}},{"sx":1,"sy":1,"depth":420,"w":{"0":-0.09017038860386156,"1":-0.2735076293927149,"2":-0.15025932198413486,"3":-0.11560768613740495,"4":0.08388515313324915,"5":0.0029876765566223314,"6":-0.04355353069292646,"7":-0.022740424162951918,"8":-0.1276150961752504,"9":-0.04536202335643849,"10":0.06255950128045756,"11":0.02061075340704187,"12":0.04164963986332455,"13":0.0563531596789993,"14":0.07162217610183416,"15":-0.1412813169036563,"16":-0.09998050130794238,"17":0.04128428346373235,"18":0.061068558720093764,"19":0.03361458370574795,"20":0.04312920143095181,"21":-0.007926515896123792,"22":-0.029256375364063603,"23":-0.08465037301658304,"24":-0.030385522412120877,"25":0.06367288449222937,"26":-0.09090730874289804,"27":0.04274502702620126,"28":0.08020811132527103,"29":-0.010376628317686598,"30":-0.11931017258489289,"31":-0.0017934637544643924,"32":0.005214591274301818,"33":0.04271479143112645,"34":0.012293764979002446,"35":0.049859087461587334,"36":-0.09448241617852692,"37":-0.07139864444602616,"38":0.00274345072115344,"39":0.07100883615535644,"40":-0.09512600214836645,"41":0.0397616512206162,"42":0.08294581279522248,"43":-0.05937471076937784,"44":-0.09010043952215577,"45":0.0020006970296164357,"46":0.0888792505815316,"47":-0.08338063278285864,"48":0.03808085173987637,"49":0.09556133168119177,"50":-0.11063141555546284,"51":0.011809635638263608,"52":0.008707623210874538,"53":0.09538544988635199,"54":0.01453933398599157,"55":0.06114564354602634,"56":0.03151717217832578,"57":-0.0029426161526802086,"58":-0.03789155925954513,"59":-0.028089500708792906,"60":0.08624577521272526,"61":-0.004729563232994496,"62":0.10202796658072161,"63":0.03503928749724207,"64":-0.0346660442484469,"65":-0.026143263293088827,"66":-0.01601104677510296,"67":0.08109526651567646,"68":-0.051628759064619195,"69":0.03313592048025532,"70":-0.053230986039270574,"71":-0.09808563499218624,"72":-0.1297365961815761,"73":0.011503153754866892,"74":0.16178321835316634,"75":0.04172908264293563,"76":0.05877410811986113,"77":-0.051747122151778464,"78":-0.057577090073884916,"79":-0.028504406460020726,"80":-0.031599070663583216,"81":0.12458840114817032,"82":-0.015561389761752645,"83":0.003324982400841201,"84":-0.13646111984702458,"85":-0.0978358582220798,"86":-0.023937506564532092,"87":-0.058615531259846254,"88":0.12895248113676908,"89":0.005446725480421176,"90":0.0856075467472204,"91":0.06016389799777965,"92":-0.07200006353404972,"93":-0.015482998201540131,"94":-0.03395221195468534,"95":0.052933882133449794,"96":-0.06973368228801591,"97":0.01874388867632336,"98":-0.025021127845416526,"99":-0.08976453214396488,"100":-0.015137713099676695,"101":0.07022582390950276,"102":0.0046599182239803255,"103":0.05739089131481556,"104":0.0007713664519682688,"105":0.03705251523680321,"106":-0.04831484861646783,"107":-0.13353107986733853,"108":0.0774905956913815,"109":0.13155916723010735,"110":0.10087144922786682,"111":0.08654178100607604,"112":0.0034674536723040893,"113":-0.09808669579180385,"114":-0.06845617302066426,"115":0.0030498023691495017,"116":0.056935171512171735,"117":-0.005304798136975446,"118":0.07528509282442343,"119":-0.007371602865442386,"120":-0.02845584453771897,"121":-0.05424514914369869,"122":0.028304499727179175,"123":0.1269968842991788,"124":0.010319719840638704,"125":0.042858743099740734,"126":-0.011001503316772247,"127":-0.1035404831371158,"128":-0.00398078826281135,"129":0.053294616969020374,"130":0.24706226068735815,"131":0.024800483413094453,"132":0.12456994397167921,"133":0.043686820175565494,"134":-0.05504266969489338,"135":-0.056506115450216804,"136":-0.009977809332441682,"137":0.20529745999503565,"138":0.0744026668277672,"139":0.023139159353844807,"140":0.1263220623899058,"141":-0.14316217087085054,"142":-0.1049998315217055,"143":0.03632531498098348,"144":0.15835612033062899,"145":0.0676717355172898,"146":0.0031222662114775697,"147":0.049284385339625654,"148":-0.026296345880948847,"149":-0.08349207310368527,"150":0.049498737326882924,"151":0.2144889940554696,"152":-0.012723356040787398,"153":0.07435734208749258,"154":-0.043363257161852874,"155":-0.18695965961112204,"156":-0.024328361765749113,"157":0.019258857736997714,"158":0.1646261213054005,"159":-0.047099874297354544,"160":0.011400637636752304,"161":-0.15764190185704924,"162":-0.21394981990860995,"163":-0.18739754943997244,"164":0.022214345516274703,"165":0.21734521071093474,"166":0.014825890123549432,"167":0.028691746319291205,"168":-0.03643303565680478,"169":-0.04786574341494261,"170":-0.011208489049364114,"171":-0.01885361379803918,"172":0.1838407436274551,"173":0.11976567215218963,"174":-0.010273910247685184,"175":0.011856883542024077,"176":-0.1824912149296497,"177":0.03361111573955283,"178":0.07750207812980373,"179":0.12172186924546687,"180":-0.04045149715338531,"181":0.029166914294003317,"182":0.018370949873243118,"183":-0.09701125164074013,"184":-0.04345086504462004,"185":0.09200633486082563,"186":0.13585751462941512,"187":0.07735687160410418,"188":-0.03616578018515887,"189":0.012061392291734647,"190":-0.1467896753226038,"191":-0.12903980188283617,"192":0.1375648276664746,"193":0.05566099061647113,"194":0.08475640528006223,"195":-0.03878527848995339,"196":0.014583957091409876,"197":-0.1254211747179586,"198":-0.036035561962311724,"199":0.07414137957325634,"200":0.2729707227241823,"201":0.03889663168564944,"202":-0.0003936497246261073,"203":0.07755022301712926,"204":-0.2203940079899723,"205":-0.055603551660601436,"206":0.05880257770080808,"207":0.22573530839418174,"208":-0.007406966734870877,"209":0.060976959778494495,"210":0.031115392742639095,"211":-0.11766932945829733,"212":0.04787535628011358,"213":0.1536853874407851,"214":0.19158839252798737,"215":-0.017420964846449085,"216":-0.003747245812919971,"217":-0.09321300451019594,"218":-0.1393173860762479,"219":-0.04633654701766366,"220":0.059022887621481376,"221":0.1259466537169827,"222":0.06662734766251013,"223":0.00630109478729087,"224":-0.039859058302760285,"225":-0.15165186410436543,"226":0.0012640170133459542,"227":0.17562166329588297,"228":0.20981097790454317,"229":0.07980053887222943,"230":0.011991289309208427,"231":-0.009146245385219742,"232":-0.20097234028503308,"233":0.00547655839884003,"234":0.11347551356609728,"235":0.1818463740477768,"236":0.017548663034930106,"237":0.01735163196958291,"238":-0.06304031172550884,"239":-0.12365438044761408,"240":-0.01708494487510191,"241":0.19942258691729067,"242":0.03587761083489763,"243":0.030394612545237294,"244":0.04717389217544156,"245":-0.06016033595403682,"246":-0.07980517014051858,"247":0.11191834202711924,"248":0.1785262182059459,"249":0.0716298317149305,"250":0.03471094951066128,"251":0.013546707476577421,"252":-0.007027765615532999,"253":-0.1010898406929283,"254":0.015616588987632721,"255":0.13541793989945838,"256":0.051002720165052785,"257":-0.0653920602991173,"258":-0.04716398270223971,"259":0.02137195935994556,"260":-0.08019841960729879,"261":-0.048555872667014395,"262":0.16796074207195397,"263":0.0576303325615814,"264":0.009183090214087433,"265":0.04161743029340069,"266":0.08194209457857544,"267":-0.1374292778584684,"268":0.15670694159065107,"269":0.16616526315887767,"270":-0.06761428202927673,"271":-0.1273938577228169,"272":-0.11441186610235715,"273":0.10911619597282728,"274":-0.10455258392044078,"275":0.08342212879666007,"276":0.26319359600030834,"277":-0.06306551556041988,"278":-0.02875624102560424,"279":-0.011481225652921435,"280":0.00640076568175836,"281":-0.14396906630278763,"282":-0.018797820695661653,"283":0.03096528118697947,"284":-0.07420980033888877,"285":-0.10804447510778956,"286":0.036026961865257195,"287":-0.03265110320672298,"288":-0.15637538196380393,"289":0.22226411552025238,"290":0.026147969781645533,"291":-0.025484900222872583,"292":-0.07396423528927523,"293":0.021559600636115145,"294":-0.12753161938317356,"295":-0.12944350889258677,"296":0.20675345698581252,"297":0.17160374313648838,"298":-0.1483441187371233,"299":-0.05766804238906952,"300":-0.04957480926816242,"301":-0.01892667006347714,"302":-0.10849570931455868,"303":0.046425677305552804,"304":0.13339700646338054,"305":0.029157720579509248,"306":-0.05865461740397351,"307":-0.026435756053334942,"308":-0.002385230614690724,"309":0.010523810959793224,"310":-0.008582101053334906,"311":0.3595187392065554,"312":-0.06304695241025136,"313":-0.18190647951614514,"314":-0.13081242382636035,"315":0.06109288259819905,"316":0.021295793434036814,"317":-0.005027020931106112,"318":0.29606983582838875,"319":-0.061257391252753694,"320":-0.12133877850679808,"321":0.04318141505571265,"322":0.04377104259498009,"323":-0.023418937894851836,"324":0.030119714360742463,"325":-0.024351378970606526,"326":0.15718219976348932,"327":-0.08779677860406553,"328":0.00036033664665580556,"329":-0.10406919865487779,"330":-0.017158532995259893,"331":0.06900393184741169,"332":0.05380981155324222,"333":0.23020008902603242,"334":-0.05558911598970484,"335":-0.04442611415754928,"336":-0.10330858449327533,"337":-0.05777749802545162,"338":-0.013269439967302739,"339":-0.22050351963374795,"340":0.0853216792634839,"341":-0.04365428722107069,"342":-0.06634885614816659,"343":-0.14024460442144351,"344":-0.08206581818920432,"345":0.016834475078677042,"346":-0.2716792587869444,"347":0.11433204436331994,"348":-0.05594832108930232,"349":-0.023249655656449684,"350":-0.07250151724143551,"351":-0.11182280895902366,"352":0.1113008736515777,"353":-0.04632872123149611,"354":0.25825260021529517,"355":-0.07724043672992313,"356":-0.0632671489621854,"357":0.009484587101697984,"358":-0.06365180398026198,"359":-0.014143931640475832,"360":0.04855084675872577,"361":0.14696227794794126,"362":-0.003151258403905745,"363":0.040003192398583035,"364":-0.02917047038691564,"365":-0.06649919810257758,"366":0.062069395548327376,"367":0.011338961530734977,"368":0.13805295468531226,"369":0.02459838864767858,"370":-0.01029252858680643,"371":-0.022910566252590286,"372":-0.07765727406823683,"373":0.011886576887526002,"374":-0.004247107447009356,"375":0.19798338590332587,"376":0.09782727198797483,"377":0.03624563880105639,"378":-0.05840916807398264,"379":-0.0618641540090487,"380":-0.02991843807594505,"381":-0.3838722689585692,"382":0.295499453379103,"383":0.013014122745747383,"384":-0.0949677670246062,"385":-0.047700566332011085,"386":-0.06279947279254182,"387":-0.013312199545975529,"388":-0.16785917781432327,"389":0.21523067284860883,"390":0.039633231364651265,"391":-0.007690188587944753,"392":0.04020889577268916,"393":-0.07768500028388295,"394":-0.051608160040596415,"395":-0.03053657871897257,"396":0.30078784288009514,"397":0.009613519726042016,"398":-0.06194825234211455,"399":0.05730167044194643,"400":-0.17380885840186291,"401":-0.08507269209043232,"402":0.01244603022232641,"403":0.17959759944392467,"404":0.03647688067210632,"405":-0.08154027808142184,"406":-0.04684872482812326,"407":-0.06540667881373796,"408":-0.004494768612655324,"409":-0.05089317715267719,"410":0.16051798776789747,"411":-0.017469241859279762,"412":-0.03284588020205571,"413":0.08391334325393716,"414":-0.09548031398651065,"415":-0.0968915064153331,"416":-0.08647965490778982,"417":0.14660246920648337,"418":0.009958935097468093,"419":-0.07103576576636737}},{"sx":1,"sy":1,"depth":420,"w":{"0":0.06257894885269086,"1":0.11753763385840446,"2":0.1418036365199073,"3":0.25578163681775606,"4":0.2026423892065715,"5":0.029245435897088747,"6":0.012434356428361985,"7":0.02581314603436008,"8":0.01104094302418059,"9":0.042359198791562774,"10":0.0754781291979487,"11":0.040772837012694844,"12":0.06279011450243567,"13":0.05001573278879635,"14":0.0017380027785438845,"15":-0.07859088046348545,"16":0.07154788021584564,"17":0.05968896747987628,"18":0.07874192859444816,"19":-0.0017911883464034064,"20":-0.14837580492820834,"21":0.0762887644849063,"22":0.03002712233901695,"23":-0.0277220553388983,"24":0.0396891430665663,"25":0.09544137337449976,"26":-0.01312418677254333,"27":-0.05018091467632146,"28":-0.009752010279263253,"29":0.05734856450356532,"30":0.11373906600476293,"31":0.193073244685997,"32":0.10035385556177999,"33":0.08648676499952795,"34":0.10578236576300858,"35":0.03486299404085277,"36":0.04369492012642826,"37":0.08089245861204121,"38":0.01807908817061575,"39":0.09431967569895101,"40":0.04772120948211134,"41":-0.007538658399808029,"42":-0.0196691164652959,"43":0.0559200382758185,"44":0.0033771998589274765,"45":0.14414190343007163,"46":0.048729690607920005,"47":-0.054361570235384474,"48":-0.06791982409431667,"49":0.10604230086034636,"50":-0.017526366909583327,"51":0.06228116594023629,"52":0.13611088662837886,"53":0.05237570835744705,"54":-0.007313754338375048,"55":-0.10470230295658894,"56":-0.038623959690429276,"57":0.0468254649848994,"58":0.0061296096598975145,"59":0.15694237821278598,"60":0.06858888188489431,"61":0.04286995834829923,"62":-0.021409664295315857,"63":0.0031021236959361573,"64":0.06576676085301307,"65":0.14235749977723927,"66":0.15319401640706864,"67":0.030001204015285266,"68":-0.004257177380871678,"69":-0.0187010309642351,"70":-0.010012441184803888,"71":0.031964357128386495,"72":0.09595623644187634,"73":0.03847240215119231,"74":0.027331459515052423,"75":0.16343504986135343,"76":0.007811468072378158,"77":-0.07335417052883442,"78":0.011049155579026835,"79":0.07756661590076265,"80":0.07981116122070987,"81":0.03810868698925692,"82":-0.0032755002567237627,"83":0.0015871962473999683,"84":0.05460031191872981,"85":0.015601791043696047,"86":-0.003919160283724214,"87":0.084214758906411,"88":0.1111275899126333,"89":-0.06126530075279201,"90":-0.026110977465406984,"91":-0.0035303374457988893,"92":0.07388555739343912,"93":0.0619699096457112,"94":0.04129825559093225,"95":0.12417253302528426,"96":0.005779878390570274,"97":-0.004753172283240828,"98":-0.05004862088389933,"99":0.088389960698862,"100":0.04078728818437833,"101":0.14202480453131744,"102":-0.04700685660279951,"103":-0.06659172660311083,"104":0.0925720492171795,"105":0.0655463262133273,"106":-0.05185746864673302,"107":0.04892625094046684,"108":0.027857267452852483,"109":0.08286840127168449,"110":0.0721082040530519,"111":0.0919549590585825,"112":0.0035179170512973823,"113":-0.010867065907684853,"114":0.09982451258461758,"115":0.13312694666673522,"116":0.09127247104845203,"117":-0.07096780837310768,"118":-0.01565301956387748,"119":-0.07749445679012659,"120":0.0010756078073941556,"121":-0.003090806079694027,"122":0.1528917022868155,"123":-0.00409628858755265,"124":-0.08211197782024955,"125":0.050612490255644314,"126":-0.05076189253627346,"127":0.0625099794327011,"128":-0.053182044177891435,"129":-0.006828693055754798,"130":0.06426003366319633,"131":0.0319039210872067,"132":0.020429624114735697,"133":-0.09767949132641432,"134":-0.013173368831754228,"135":0.013029076975743844,"136":0.016945079190738278,"137":-0.03396596589488347,"138":-0.022345695377945302,"139":0.04482262434981632,"140":-0.01823942816408197,"141":-0.013682683977529177,"142":0.08668740879813233,"143":0.049209659871520144,"144":0.01547154410938429,"145":0.07823783692014963,"146":0.020810401343928,"147":-0.13570266642848386,"148":0.0020400922511150054,"149":-0.04507664066594348,"150":-0.03681122284552769,"151":-0.025686154825358676,"152":0.018991750347024505,"153":-0.09619339651123192,"154":-0.07007317761826826,"155":-0.04064594883234467,"156":-0.057208290667426095,"157":-0.03583361536726734,"158":0.024301064164598932,"159":-0.015698902639138472,"160":-0.0378622027200558,"161":0.02038561334581425,"162":0.04425112801967531,"163":-0.053752158438522143,"164":-0.013253631158300196,"165":0.006726263803680992,"166":-0.04703332769716937,"167":-0.05653908419364779,"168":-0.0036590682084998807,"169":-0.1264206368208749,"170":-0.11307296039041333,"171":-0.11504704079310357,"172":-0.00033865314474857626,"173":-0.032036158513380715,"174":0.031781939819716123,"175":0.014290939838846644,"176":-0.012185438040580459,"177":-0.05073364039491914,"178":-0.08975468156683505,"179":-0.08000784316073807,"180":0.03536918440968915,"181":-0.03601928550871119,"182":-0.06178102871743548,"183":-0.01419887174288696,"184":-0.09748842387848186,"185":-0.17126227885491535,"186":-0.10979268508249204,"187":0.01946237080602286,"188":-0.01386609278526973,"189":-0.010642236655609531,"190":-0.05340744501191808,"191":0.023395012899591606,"192":-0.1107080739413593,"193":-0.02312012037133651,"194":-0.049869294026546045,"195":-0.022660830631580194,"196":-0.03392105500846518,"197":-0.035330415945057085,"198":-0.12619678379249163,"199":-0.21481508740596073,"200":-0.055873271114884195,"201":-0.13455218408113423,"202":-0.05141333313563235,"203":-0.03700553003640041,"204":-0.06194132765387871,"205":-0.1634745351710152,"206":-0.3357203627502647,"207":-0.046897441266186314,"208":-0.07191628133390532,"209":-0.06118594206441574,"210":-0.021271823496812572,"211":0.058633047274362145,"212":-0.15872123029573484,"213":-0.4739079031266984,"214":-0.09347135010327132,"215":0.034218632430419664,"216":0.009107294831997513,"217":-0.060928047532105054,"218":-0.18461873924864916,"219":-0.06691519332159156,"220":-0.7332920726608426,"221":-0.06514338689008624,"222":-0.08270536837606904,"223":0.011614904786253932,"224":-0.0040449176433512745,"225":0.000996774306098172,"226":-0.11074556181444734,"227":-0.6345735251978912,"228":-0.17720153879891698,"229":-0.13110613918831213,"230":-0.029003270870188873,"231":0.0884495147777253,"232":0.044535076090852006,"233":-0.14929856451992807,"234":-0.6053123163127552,"235":-0.011841899205887511,"236":-0.09038391502200718,"237":-0.0012197562674865412,"238":0.018429908751788904,"239":-0.03212380295995859,"240":-0.15047017392271783,"241":-0.7726256975445193,"242":-0.10836961789148195,"243":0.006451368074761096,"244":0.05189982532229248,"245":0.046077557618633504,"246":0.07747390400508317,"247":-0.13580059113474321,"248":-0.8502200986979019,"249":-0.1303387240489174,"250":-0.006972410485001589,"251":0.07628661391773363,"252":-0.058048843820943156,"253":0.05684228852290596,"254":-0.13350810716974193,"255":-0.6830775439012527,"256":-0.232679658111572,"257":-0.041793588715047084,"258":0.052580241537195906,"259":0.10933018820140045,"260":-0.07705369005735935,"261":-0.20580563350484463,"262":-0.6683894721881155,"263":-0.2181273791196546,"264":-0.03206113732819165,"265":0.0745520699000203,"266":0.054253568289941816,"267":-0.03715176634330762,"268":-0.2366540407071548,"269":-0.3104622898767679,"270":-0.19182739056973738,"271":0.040700356951563293,"272":0.03311286034364121,"273":0.004482529693972851,"274":0.0031719431890396437,"275":-0.14324548380431484,"276":-0.1694679276422325,"277":-0.32128042251788114,"278":-0.08527035013442599,"279":-0.09597098956686662,"280":-0.057011725939068274,"281":0.006347803967334384,"282":-0.15306016445909978,"283":-0.28258897768271407,"284":-0.2698975796450758,"285":0.09177951472787792,"286":0.003791731741943407,"287":-0.010875163018973184,"288":0.06285019895943046,"289":-0.06845599222653943,"290":-0.21006565320723597,"291":-0.22461068998339093,"292":0.0006244644315748461,"293":0.05361300544073065,"294":-0.004758454659339965,"295":0.029876331724690855,"296":-0.18003692143516709,"297":0.018647077538431058,"298":-0.19891944500179914,"299":-0.07647801813188697,"300":-0.055434789376577275,"301":0.026139083059114075,"302":-0.037988768043070276,"303":0.034408866906429386,"304":-0.2631717025813977,"305":-0.24759684487393652,"306":-0.0066384836522932625,"307":0.07667510564391361,"308":-0.00912447036575671,"309":-0.011717738952236559,"310":-0.14652610340196845,"311":-0.21922269109616993,"312":-0.2679087221015958,"313":0.093112601600633,"314":-0.0807771373824804,"315":-0.02887731562716887,"316":-0.002321047389588346,"317":0.03625138367522292,"318":-0.27123755659785315,"319":-0.040423079889997895,"320":0.04538407087227924,"321":-0.05690443567073448,"322":0.030356165208770727,"323":0.020344412634214618,"324":0.03574670736106921,"325":-0.31525017515436804,"326":-0.02771838190316274,"327":0.005134742548181961,"328":-0.02391934305797175,"329":0.008476937170154134,"330":0.05165245504099581,"331":0.0367350449995017,"332":0.6937321098892187,"333":0.09214019918458127,"334":0.03290716154597931,"335":0.09319449669232119,"336":-0.031156625064696224,"337":-0.01665380529384258,"338":0.07922415320058403,"339":0.7198053232536066,"340":0.06722714132841706,"341":0.032492682880622244,"342":0.07196735009073128,"343":-0.00951817943770814,"344":-0.03153336301812618,"345":0.22265772362600253,"346":0.7647285282736676,"347":0.041357074582346685,"348":0.016716321205285312,"349":0.027656446051427606,"350":0.02663764440495289,"351":0.03343978698268739,"352":0.11701016156619004,"353":0.01788603175254143,"354":0.13862366338816456,"355":0.09166713938964274,"356":0.006074651517058349,"357":0.0005941663190260796,"358":0.07433408219335841,"359":0.09645196474466712,"360":0.05480399680126719,"361":0.14047765300938986,"362":0.044675961481548565,"363":0.018460720019242288,"364":0.013911638539045876,"365":-0.04678793482920694,"366":0.04778671865629426,"367":-0.0027226321700660073,"368":0.2248958391513328,"369":0.024630255313081505,"370":0.02557652007857932,"371":0.04782020172649188,"372":-0.009445914486731103,"373":0.1297170033062118,"374":-0.01076040825689596,"375":0.16514532887680608,"376":-0.02405674229825452,"377":0.05392176362061326,"378":-0.057823016577445804,"379":0.036904847579536514,"380":0.15394406312405354,"381":0.8161656774711177,"382":0.1864380507258476,"383":0.02275993263902517,"384":0.02153398858689232,"385":-0.006799807283915516,"386":0.06040402839270027,"387":-0.03452634747553756,"388":0.835014473800346,"389":0.2166564571977325,"390":0.08548432561940712,"391":0.010805540412155862,"392":0.02440969289417741,"393":0.024551220738298424,"394":0.015830982075887484,"395":0.677038868676964,"396":0.13947155058804572,"397":0.016450696447628962,"398":0.029665238067817037,"399":0.006974394452900161,"400":-0.03708504103632277,"401":-0.0709154544060321,"402":-0.08273757603546107,"403":-0.0006033665350136378,"404":0.03615001637007396,"405":0.03572366599375571,"406":0.1607533131707726,"407":-0.00812526738472666,"408":-0.02055898911443865,"409":-0.19751377934762576,"410":0.00307289584114823,"411":0.08939552252200741,"412":0.0363547739764508,"413":0.0638399226535908,"414":-0.05983580018689987,"415":-0.015489280235965795,"416":-0.09233658065800358,"417":0.045159472300032776,"418":-0.05315648440172214,"419":-0.06843733767908325}},{"sx":1,"sy":1,"depth":420,"w":{"0":-0.004115759608599579,"1":0.06692899663838553,"2":0.025056239852436168,"3":-0.014844229977385836,"4":-0.04402252722200763,"5":-0.02395569915270137,"6":-0.0035558093589604443,"7":0.049036298205945704,"8":0.004087748177726255,"9":0.008913790074500673,"10":0.04325643045530589,"11":-0.004271815624446301,"12":-0.004941875678977215,"13":0.060821646641344825,"14":-0.019830990838624704,"15":0.02324828786132833,"16":0.025163089192687022,"17":0.0849741722122872,"18":0.08582620408900107,"19":-0.044341550270059676,"20":-0.0007054688759962959,"21":0.03181508020720399,"22":-0.010154984872200176,"23":0.0985056570776771,"24":0.042574283504162064,"25":-0.08042376875372255,"26":0.007061972975099259,"27":0.02349518722953419,"28":0.08269465159138553,"29":0.017841862155686256,"30":-0.028115376533526693,"31":0.023974725800512266,"32":0.061103637584253266,"33":0.014103858962071655,"34":-0.020662686888199513,"35":0.03926485394361771,"36":-0.014894185752497995,"37":-0.013018060939296203,"38":0.035848644716614995,"39":0.05188551440964153,"40":0.0038247377954680104,"41":0.04085276668742623,"42":0.04603781967792291,"43":0.03104666654395283,"44":0.008634841746414925,"45":0.06540914412705219,"46":0.009510344653211943,"47":0.018183111283711435,"48":-0.057138473421936176,"49":0.03341099414781129,"50":0.0068472310504425725,"51":-0.040719566466372856,"52":-0.04116686165639215,"53":0.08886001084307683,"54":-0.010556531645632469,"55":0.04027989794027964,"56":0.1193019769006196,"57":0.011549373105301708,"58":-0.033734379658537844,"59":0.052640034056284396,"60":0.021845892043529005,"61":0.13889181277534585,"62":0.0027497671860678063,"63":0.08342383866136806,"64":0.007353754166294361,"65":0.006539559268744374,"66":0.026176778561205073,"67":0.03484875918626162,"68":0.027281859401094077,"69":0.05938088481654582,"70":-0.04036795125960992,"71":0.04341656969954862,"72":-0.014214343777682754,"73":0.07254206716823045,"74":-0.06374810604936937,"75":0.02216510209780274,"76":0.05398954495414747,"77":0.007730489948471855,"78":0.06404492649842307,"79":-0.03301713128007513,"80":0.023970393996886722,"81":-0.020235282361801075,"82":0.02771686950544004,"83":-0.020577690852108373,"84":-0.0017546856013028627,"85":0.03804494217796883,"86":0.08223555267488765,"87":-0.011087287362432564,"88":0.024136178522157117,"89":-0.015761622309402538,"90":0.028282619093199686,"91":0.004505479230112423,"92":0.03542711159754259,"93":-0.041028106226644184,"94":-0.00207372640015946,"95":0.026098997465905042,"96":-0.04692704788154775,"97":-0.058961552997448506,"98":0.0195597417646424,"99":0.07137835373085098,"100":-0.013709623376951002,"101":0.09145814822562275,"102":0.08081312418157739,"103":-0.011653767475451368,"104":0.04706635497673332,"105":-0.07011504406957449,"106":0.020513124639222165,"107":0.03021672416483556,"108":0.06354097583770295,"109":0.10998051186841766,"110":0.03822843271874645,"111":0.029226613558511555,"112":0.05479389014575018,"113":0.03914364991954015,"114":0.03425807375819687,"115":0.030538830760814827,"116":0.007697468340967815,"117":-0.0508961408088364,"118":-0.0747500522162418,"119":0.04023661206850982,"120":0.003778655832851122,"121":-0.045900133729267115,"122":0.04988756097063148,"123":0.0022754456619555807,"124":0.015980078444899227,"125":-0.018522335729486163,"126":0.07195843385071503,"127":-0.006112363351618085,"128":0.0347886878986422,"129":0.050642613540903984,"130":-0.012720479903063865,"131":-0.0653475994033548,"132":-0.025712733214066003,"133":-0.04224481060530041,"134":0.05423745963022688,"135":0.0549039765824265,"136":0.07791768319663846,"137":0.004480272241320882,"138":0.03926692788099811,"139":0.05277327598838816,"140":0.04466674690652749,"141":0.029792913361329148,"142":0.07672255425439979,"143":0.02861954632668728,"144":0.11038149190603533,"145":0.020822290739444874,"146":-0.08519682101595556,"147":-0.023566309967204165,"148":0.014468160313602875,"149":-0.0006773727454052355,"150":-0.028716506386029385,"151":0.08320864906769716,"152":0.11433505333079846,"153":-0.011095174533463715,"154":-0.050488965009584864,"155":0.07495052392063917,"156":0.0844798426335714,"157":0.02541195902385302,"158":-0.03656276235728438,"159":0.02317479588694294,"160":-0.000014023042914845298,"161":0.030116628852498203,"162":-0.005289882415861416,"163":-0.0023062613734385197,"164":0.004679516830448849,"165":0.0272800574048256,"166":0.061662662615237486,"167":0.004790443836309611,"168":0.06144812202496323,"169":0.05925321982032766,"170":0.04597320558838783,"171":0.046328633565563326,"172":0.021519771008351164,"173":-0.026050485590909632,"174":0.013742316261471063,"175":0.07387210743628059,"176":-0.028065812815975442,"177":-0.09360045245054613,"178":-0.005961124711190316,"179":-0.004247340522007638,"180":-0.07342050485418489,"181":0.07428065416924164,"182":0.020146405996369538,"183":0.04868376844171053,"184":0.013716989897812015,"185":-0.03957521832434447,"186":-0.00316477236524291,"187":0.04966990693737861,"188":0.03795030217028146,"189":0.013108228704017377,"190":0.025170098598643807,"191":-0.042194751305790285,"192":0.09891294545954424,"193":0.003380307955968593,"194":-0.019674413084508853,"195":-0.005996939942561266,"196":-0.01147973453112877,"197":-0.02122008750210612,"198":0.03202934837378151,"199":0.09263844643577777,"200":-0.018349676541773968,"201":0.0766472125672821,"202":-0.05128828801557617,"203":0.05766427287393523,"204":0.008612081696453435,"205":0.03289688718591324,"206":-0.00564553036720365,"207":-0.0008310649915392152,"208":0.002873870484225412,"209":-0.03758725655385595,"210":-0.07332829905110831,"211":-0.025608343818950757,"212":0.03624168893679758,"213":0.022527100724649356,"214":-0.03219525291777176,"215":-0.06959066324921982,"216":0.05407691976548132,"217":-0.09517212162348192,"218":0.03034943553986672,"219":-0.0043700155500066284,"220":-0.08093703822081176,"221":-0.006964377870136996,"222":0.008712675366352408,"223":-0.032277866973601146,"224":-0.04671192999702771,"225":0.020232495638642524,"226":-0.028680194086247956,"227":-0.019709013377347907,"228":0.0003357254375174721,"229":0.016155764218943283,"230":0.0702267843676825,"231":0.021860662920700012,"232":-0.03763935497272247,"233":-0.024427140837431763,"234":0.07245640429799755,"235":-0.10060173678876388,"236":-0.03636825256916366,"237":-0.03535723268912196,"238":0.06315654115033273,"239":0.05568355170147052,"240":0.019247506977401307,"241":0.03386019608159868,"242":0.026539765631469425,"243":0.046535480105613355,"244":-0.07093021091318319,"245":-0.09910133547617579,"246":-0.018864230503253056,"247":-0.015499921080245647,"248":0.11213259499420565,"249":-0.09097558230308127,"250":0.08374526679696104,"251":0.04530875695039723,"252":0.08467999324196729,"253":-0.02731874789483962,"254":-0.028789067228299978,"255":-0.04690219387764041,"256":0.03308933185379697,"257":0.061568618952880086,"258":0.030609734129630875,"259":-0.07764665676140622,"260":-0.059658745313038206,"261":-0.0661976203362734,"262":0.08227851742886898,"263":-0.008951864648656358,"264":0.08876085367922609,"265":-0.04100886479018308,"266":0.03250662321663839,"267":0.08858144417327443,"268":0.07668890404952934,"269":0.033683073450761984,"270":-0.05788337018746849,"271":0.06425218316993775,"272":-0.0506290425508787,"273":-0.009022255578612264,"274":-0.02828919937031482,"275":0.025832683778700277,"276":0.07787631804423714,"277":0.02108352236782083,"278":-0.004539325051059333,"279":0.0008136288936666681,"280":-0.12405724179918355,"281":-0.06212096695093389,"282":0.0020751955248562875,"283":0.068635891087608,"284":0.039302648930358675,"285":-0.06683873482536806,"286":-0.05594134380895521,"287":0.029775707901717997,"288":-0.06266597834372604,"289":0.003260763064905764,"290":-0.01577201399808983,"291":0.05312128003230168,"292":0.11183979303083116,"293":0.0999549780862563,"294":0.010253451937003942,"295":0.06952075310343735,"296":0.008001709249648725,"297":0.04726506896057675,"298":0.09786817333016923,"299":0.019622431274958576,"300":0.021079493292486297,"301":-0.02809673935716433,"302":-0.015270776695198014,"303":-0.02094906776710339,"304":0.036836264853402,"305":-0.021144099596404144,"306":-0.016312706620058008,"307":-0.005688724981764185,"308":-0.06847888784758947,"309":-0.09541397606766829,"310":0.012530643984363123,"311":0.09609146300044549,"312":0.07201002229741127,"313":-0.014441947398630806,"314":0.037489143257068605,"315":0.04211314971733525,"316":0.008659156779743011,"317":-0.036768525253664995,"318":-0.020342529739919537,"319":0.018462684513007456,"320":0.04523145227563539,"321":-0.009681795762954932,"322":0.008410553908305245,"323":-0.029887604740498546,"324":0.028873548555390413,"325":0.07293702625338068,"326":0.07042237084325063,"327":-0.13015151571870323,"328":0.016815788102855368,"329":-0.03790093477044106,"330":-0.04356904409410819,"331":0.03705480125262344,"332":0.04625283419349117,"333":0.04467472594233591,"334":-0.01845231145331169,"335":-0.04202922467951197,"336":0.06875673880156447,"337":0.016034847767717623,"338":0.003781017674437704,"339":0.04659578430204983,"340":-0.05137608400187152,"341":-0.018144305275232454,"342":-0.04958784029580506,"343":0.11094663780394004,"344":0.0389569028079598,"345":-0.04102446606370718,"346":-0.01910769529243112,"347":0.0014554613611460353,"348":-0.028972250486831698,"349":0.029184521573107844,"350":-0.06565347337029671,"351":0.03672349175462847,"352":0.07450607721012978,"353":0.04757014685158671,"354":0.045273324841669384,"355":-0.020747946244187115,"356":0.007724369847935246,"357":0.0582010724173117,"358":0.047095565181342725,"359":0.0023875815968337874,"360":0.06100989650381765,"361":-0.03308170558468317,"362":-0.026428848097963763,"363":0.05945919558443375,"364":-0.0014660151216652109,"365":0.020140776110287802,"366":0.030644326418851033,"367":0.12328845387582864,"368":0.018962359419850843,"369":0.0600363331823364,"370":0.006746121335318825,"371":0.07107423040822124,"372":-0.015796010247288817,"373":0.006064891207512308,"374":0.05954621708746185,"375":0.026847146346418993,"376":-0.013709711081531618,"377":0.07170010905512303,"378":0.0845079775568509,"379":-0.05588075695095335,"380":-0.017734223600915613,"381":0.07213825562035753,"382":0.04547399509521436,"383":-0.028182741805421706,"384":0.03743830929315724,"385":0.02223253700279895,"386":-0.05615007563376534,"387":-0.00312962303882621,"388":0.09299158877236553,"389":0.02845852799193802,"390":-0.06173127489743822,"391":0.0021103013756735827,"392":-0.005898287067405448,"393":0.019141402123364716,"394":0.0436181824806583,"395":0.04582539617620579,"396":0.05084794833124643,"397":0.07603063541744166,"398":0.057161262700533344,"399":0.0016123917264470912,"400":-0.02741222211762728,"401":0.024452121035250605,"402":-0.02172939365913078,"403":-0.016615195003828073,"404":-0.05970200768827961,"405":0.013094565159286552,"406":-0.020416368602070488,"407":-0.02014896887413643,"408":0.042158900591946775,"409":0.07562214963718408,"410":0.02406859633992993,"411":0.04913322338734339,"412":0.03422878824722691,"413":0.12602262698815522,"414":-0.06880607474778518,"415":0.035282477959403084,"416":0.10389037314965092,"417":-0.03661871029695862,"418":0.05880712903212959,"419":0.04538465406542379}},{"sx":1,"sy":1,"depth":420,"w":{"0":-0.09032113990624742,"1":-0.022468064507930204,"2":0.03529058620972446,"3":0.0911135739424765,"4":-0.010555097266676295,"5":-0.003537680799855162,"6":0.014893839367307473,"7":-0.11097128171080455,"8":-0.07813305848262096,"9":-0.07242272142194997,"10":-0.026293134988879495,"11":0.02375402741090133,"12":-0.0972762802145765,"13":-0.07023785612946339,"14":-0.009897981784886689,"15":-0.015110148135437425,"16":0.01428886829283725,"17":0.0011764640402599784,"18":0.0479215498082035,"19":-0.05326256017384668,"20":-0.02406767853824199,"21":0.08473946554417795,"22":-0.0014938583176537605,"23":-0.015389828886311876,"24":-0.008826008437378704,"25":0.0252735243454983,"26":-0.02276625027105171,"27":-0.06260702307806941,"28":0.01815931310739486,"29":0.011491307934690585,"30":0.0026155676262319127,"31":0.021396947523710044,"32":-0.024645679533259995,"33":-0.1072557571567481,"34":-0.02117774066036743,"35":-0.021588143893693342,"36":0.09657034397890674,"37":-0.040048758221002186,"38":-0.03531755988507522,"39":-0.13581010013613182,"40":-0.07988402348581651,"41":0.018210175111470293,"42":0.016958401296099157,"43":-0.013242332295000263,"44":-0.10632976807573274,"45":-0.013730194050077136,"46":-0.06448525812532332,"47":0.04982359413437084,"48":-0.00006957066845202237,"49":0.013608681005274558,"50":0.03479250319039491,"51":-0.039108854245727485,"52":-0.04688790773801708,"53":-0.07916625943107225,"54":-0.06819634496689995,"55":-0.047014217101781025,"56":0.004486375867347754,"57":0.03701796401578228,"58":-0.00328843884248412,"59":-0.014894957595258173,"60":0.029758607830859665,"61":0.017133388156357423,"62":0.036154527827274095,"63":-0.005551654384754115,"64":-0.08161567872567085,"65":-0.041177938981697956,"66":-0.004978901011032644,"67":-0.08775657169366842,"68":0.04614816962011854,"69":-0.021902380657383924,"70":-0.0016740800299894667,"71":-0.028205558505496185,"72":-0.03268267496130708,"73":-0.057126876464276624,"74":-0.021293391133530105,"75":-0.052420320403527794,"76":-0.17154967612805977,"77":-0.07087957492180588,"78":-0.011253771755730089,"79":-0.03251272750793234,"80":-0.009678569626518418,"81":0.041838488012062795,"82":0.03326428134852527,"83":-0.06713533664686334,"84":-0.0008859528796122555,"85":-0.01264633329482755,"86":-0.06373410223310326,"87":0.03655585542303957,"88":-0.03633372438251164,"89":0.051665496763901586,"90":0.03281295970845604,"91":-0.01613322530220437,"92":0.07295168618886883,"93":0.040559972279146185,"94":-0.027504187864396918,"95":-0.0033286516013604633,"96":-0.06454811786869939,"97":-0.04833251786801269,"98":-0.07022808528539809,"99":-0.009210712711313922,"100":-0.03833995874067513,"101":-0.1025791597804747,"102":0.02638124388672944,"103":0.03412557727316341,"104":-0.07169338923203843,"105":-0.0054899857922416214,"106":-0.05388231046247363,"107":0.06043830258843658,"108":0.00788767494902967,"109":-0.007997939008858515,"110":0.054992461285577575,"111":-0.02358010443506184,"112":-0.0519275657206711,"113":-0.013650051834752078,"114":-0.019906492070094036,"115":-0.024842643138261376,"116":-0.12364300147896042,"117":0.014589205268185522,"118":0.007995934278576979,"119":-0.019542177163175217,"120":-0.027076897435824202,"121":0.05746875470268792,"122":-0.007166463922084422,"123":-0.03377258702832271,"124":0.09339285456788453,"125":-0.0626476012144218,"126":-0.03268675674428843,"127":0.06079695171718604,"128":-0.041960950176650164,"129":-0.029695014760924378,"130":0.006224870396341675,"131":-0.021185771690064838,"132":-0.015030849667134364,"133":-0.04763349331442027,"134":-0.05490275403336717,"135":-0.04193138398124835,"136":-0.03806728281476169,"137":0.036341650539013774,"138":0.061863300300190625,"139":-0.014941288779141637,"140":0.13255574631581007,"141":0.03608363179157609,"142":-0.016258885933682556,"143":-0.055354596722792304,"144":0.022825484870503097,"145":-0.09357714003856066,"146":0.07913249008210478,"147":-0.010960205891731434,"148":-0.05787356047797687,"149":-0.06737200485038623,"150":0.03769651732435216,"151":-0.04502408928006486,"152":0.03803530759180975,"153":0.01081198014572943,"154":0.01614364081716563,"155":-0.009365444486946664,"156":-0.004656976172261042,"157":-0.0710183064989816,"158":-0.06930172238556669,"159":-0.06912361422268763,"160":-0.10051394996238397,"161":-0.046765223929983384,"162":-0.09073276869324255,"163":-0.0029537001254567718,"164":-0.035606688983917244,"165":-0.012390545668495767,"166":-0.015644859321776127,"167":-0.034764671332844915,"168":-0.03847526350970268,"169":0.05645155359008741,"170":0.06710710909521717,"171":0.014013902874238468,"172":0.006952575669228971,"173":-0.02657581640823528,"174":0.05157919842365536,"175":0.03553963452196579,"176":-0.01876804244303637,"177":-0.007816969637922767,"178":-0.1036229451501843,"179":0.02536506742748491,"180":-0.08063925727037125,"181":-0.00982393568279013,"182":0.06645342917295873,"183":-0.05779663259942838,"184":0.03516062167989995,"185":-0.0725623559841451,"186":-0.008953797875595275,"187":0.0241869434566065,"188":0.008984465486458537,"189":0.057216927651456036,"190":-0.0376588633709756,"191":-0.01916307744855506,"192":-0.03614555033363545,"193":-0.01667790680453,"194":0.037865311608742916,"195":-0.05626583583878224,"196":0.020098178316227046,"197":-0.1320237921984214,"198":-0.0037166100931352677,"199":0.052262159375637024,"200":0.04964605960454162,"201":-0.11064838254242958,"202":0.010600150932211097,"203":-0.012276188171067109,"204":-0.010631294609431161,"205":-0.02874917480359791,"206":-0.09223279050579251,"207":-0.10371101872369813,"208":0.031127154872231565,"209":-0.06850790375677655,"210":0.08392801400420043,"211":-0.024873361767550353,"212":-0.03798302112269039,"213":-0.07730285829424545,"214":-0.06417255151699094,"215":-0.013767362208780783,"216":0.016242700788171097,"217":0.02228576540973403,"218":-0.10205703806302491,"219":-0.029299355196829722,"220":-0.055526774195681576,"221":-0.02962350532288665,"222":-0.13265114742870882,"223":-0.01452526862108337,"224":-0.005765275177613713,"225":-0.012322781904815974,"226":-0.004381755996842071,"227":-0.052407335705440435,"228":0.009392637980160799,"229":-0.016682162006747644,"230":-0.03198728548087247,"231":-0.08754787721836288,"232":-0.08401823889206005,"233":0.0051635763681804675,"234":0.0077302905776221835,"235":-0.008075814828444725,"236":0.06416084335779325,"237":-0.0061515741352146675,"238":-0.03747684354222594,"239":0.024081584866434972,"240":-0.05396072199230868,"241":0.026305452325885745,"242":-0.005046252722197213,"243":0.031087486409960948,"244":-0.07542672311525815,"245":0.02188455347813728,"246":0.021088322540037178,"247":-0.02744385847107923,"248":0.02157568068132648,"249":-0.010849382608447766,"250":-0.057927289708431286,"251":0.023228494912968432,"252":-0.12234677199649421,"253":-0.03665114654514031,"254":-0.031335148629302846,"255":-0.01885066536941496,"256":-0.01559392836638002,"257":0.0016388688723275465,"258":0.034877929327558135,"259":0.0033266626907529763,"260":-0.04850831888045916,"261":-0.07431062815555466,"262":-0.07332555673228373,"263":-0.057857389334557356,"264":0.013383225571668482,"265":0.020534790796466085,"266":-0.04444835432081199,"267":-0.042911741883717755,"268":0.07178925563317107,"269":-0.11307040054166877,"270":-0.008185683679056857,"271":0.06015748175985625,"272":-0.04242588481488017,"273":-0.05080244685921984,"274":-0.052884566667262975,"275":0.010092680439083826,"276":-0.09268020623286444,"277":-0.03300590435010831,"278":0.008364436855814533,"279":0.033736647249691123,"280":-0.026347778625448258,"281":-0.04699430174888194,"282":-0.018615160133030027,"283":0.036576230499521814,"284":-0.03340093724353252,"285":-0.01733966338474529,"286":0.021878439672727845,"287":-0.0797229885588147,"288":-0.06364708581481214,"289":-0.006878205530237439,"290":0.010980128652792312,"291":-0.03761524848967495,"292":0.0344512029555294,"293":-0.023172754454444545,"294":0.022604199766780467,"295":0.009561930185817163,"296":-0.060240999521436606,"297":0.022570288807366112,"298":-0.11354498582921653,"299":-0.01278939867871287,"300":0.027183841069449783,"301":-0.09315621847146233,"302":0.06358664363938255,"303":0.0016838188011831855,"304":-0.07686405092291321,"305":0.051919576438490225,"306":-0.028111806351511785,"307":-0.022975919218116158,"308":0.010888824480744224,"309":-0.001422659681222811,"310":0.00902489313806124,"311":-0.003791997545675068,"312":-0.013649759640294083,"313":-0.0407478737051207,"314":-0.007773669090188271,"315":-0.00797866136696745,"316":-0.0665749625604204,"317":0.0775445561429607,"318":-0.0360129095191486,"319":-0.05649585196587236,"320":-0.09604836417067157,"321":-0.01343424086962742,"322":0.008445979014706917,"323":-0.006913011751208347,"324":-0.02198634800844815,"325":-0.013755011123538016,"326":0.09853992570325884,"327":0.02245853792682761,"328":-0.02844831186844617,"329":-0.0074622048766092176,"330":-0.04462854904324177,"331":-0.01127620916146762,